<?xml version="1.0"?>
<opencv_storage>
<cascade>
  <stageType>BOOST</stageType>
  <featureType>HAAR</featureType>
  <height>24</height>
  <width>24</width>
  <stageParams>
    <boostType>GAB</boostType>
    <minHitRate>9.9500000476837158e-01</minHitRate>
    <maxFalseAlarm>5.0000000000000000e-01</maxFalseAlarm>
    <weightTrimRate>9.4999999999999996e-01</weightTrimRate>
    <maxDepth>1</maxDepth>
    <maxWeakCount>100</maxWeakCount></stageParams>
  <featureParams>
    <maxCatCount>0</maxCatCount>
    <featSize>1</featSize>
    <mode>BASIC</mode></featureParams>
  <stageNum>20</stageNum>
  <stages>
    <!-- stage 0 -->
    <_>
      <maxWeakCount>3</maxWeakCount>
      <stageThreshold>-1.2804970741271973e+00</stageThreshold>
      <weakClassifiers>
        <_>
          <internalNodes>
            0 -1 25 -3.6234983801841736e-01</internalNodes>
          <leafValues>
            -9.7877281904220581e-01 9.5668792724609375e-01</leafValues></_>
        <_>
          <internalNodes>
            0 -1 44 -3.2703202962875366e-01</internalNodes>
          <leafValues>
            -9.2194831371307373e-01 8.7571537494659424e-01</leafValues></_>
        <_>
          <internalNodes>
            0 -1 128 -3.1512025743722916e-02</internalNodes>
          <leafValues>
            -9.6377241611480713e-01 6.2022405862808228e-01</leafValues></_></weakClassifiers></_>
    <!-- stage 1 -->
    <_>
      <maxWeakCount>4</maxWeakCount>
      <stageThreshold>-1.6162532567977905e+00</stageThreshold>
      <weakClassifiers>
        <_>
          <internalNodes>
            0 -1 89 -3.5251405835151672e-01</internalNodes>
          <leafValues>
            -9.2252606153488159e-01 8.7087911367416382e-01</leafValues></_>
        <_>
          <internalNodes>
            0 -1 41 -5.6054520606994629e-01</internalNodes>
          <leafValues>
            -6.7724317312240601e-01 9.3199026584625244e-01</leafValues></_>
        <_>
          <internalNodes>
            0 -1 228 1.4398615807294846e-02</internalNodes>
          <leafValues>
            -4.5082098245620728e-01 7.5852346420288086e-01</leafValues></_>
        <_>
          <internalNodes>
            0 -1 27 -1.3400700688362122e-01</internalNodes>
          <leafValues>
            -7.6694685220718384e-01 4.3433699011802673e-01</leafValues></_></weakClassifiers></_>
    <!-- stage 2 -->
    <_>
      <maxWeakCount>7</maxWeakCount>
      <stageThreshold>-1.8214318752288818e+00</stageThreshold>
      <weakClassifiers>
        <_>
          <internalNodes>
            0 -1 116 -2.1234638988971710e-01</internalNodes>
          <leafValues>
            -8.8415020704269409e-01 8.7841945886611938e-01</leafValues></_>
        <_>
          <internalNodes>
            0 -1 175 -8.8730245828628540e-02</internalNodes>
          <leafValues>
            -6.6532462835311890e-01 6.3474386930465698e-01</leafValues></_>
        <_>
          <internalNodes>
            0 -1 5 -6.3718827441334724e-03</internalNodes>
          <leafValues>
            -4.4071725010871887e-01 5.4778861999511719e-01</leafValues></_>
        <_>
          <internalNodes>
            0 -1 225 2.7277838438749313e-02</internalNodes>
          <leafValues>
            -2.8527483344078064e-01 6.7720866203308105e-01</leafValues></_>
        <_>
          <internalNodes>
            0 -1 126 -6.1054085381329060e-04</internalNodes>
          <leafValues>
            5.9638476371765137e-01 -2.7416813373565674e-01</leafValues></_>
        <_>
          <internalNodes>
            0 -1 202 -1.1921823024749756e-01</internalNodes>
          <leafValues>
            -7.0849668979644775e-01 2.5243782997131348e-01</leafValues></_>
        <_>
          <internalNodes>
            0 -1 78 2.7133598923683167e-03</internalNodes>
          <leafValues>
            -3.1021055579185486e-01 5.6614696979522705e-01</leafValues></_></weakClassifiers></_>
    <!-- stage 3 -->
    <_>
      <maxWeakCount>10</maxWeakCount>
      <stageThreshold>-2.1361458301544189e+00</stageThreshold>
      <weakClassifiers>
        <_>
          <internalNodes>
            0 -1 143 -7.1244597434997559e-02</internalNodes>
          <leafValues>
            -8.0839073657989502e-01 6.3036304712295532e-01</leafValues></_>
        <_>
          <internalNodes>
            0 -1 200 1.7281111329793930e-02</internalNodes>
          <leafValues>
            -6.3217753171920776e-01 3.0144572257995605e-01</leafValues></_>
        <_>
          <internalNodes>
            0 -1 49 -9.1426804661750793e-02</internalNodes>
          <leafValues>
            -4.6130004525184631e-01 4.7568896412849426e-01</leafValues></_>
        <_>
          <internalNodes>
            0 -1 26 3.0262828804552555e-03</internalNodes>
          <leafValues>
            -2.1335023641586304e-01 6.6809982061386108e-01</leafValues></_>
        <_>
          <internalNodes>
            0 -1 22 -2.6837259065359831e-03</internalNodes>
          <leafValues>
            4.8674878478050232e-01 -3.1922197341918945e-01</leafValues></_>
        <_>
          <internalNodes>
            0 -1 185 7.3706721886992455e-03</internalNodes>
          <leafValues>
            -1.7524367570877075e-01 6.8693417310714722e-01</leafValues></_>
        <_>
          <internalNodes>
            0 -1 0 -8.7670639157295227e-02</internalNodes>
          <leafValues>
            -6.3652890920639038e-01 2.1396511793136597e-01</leafValues></_>
        <_>
          <internalNodes>
            0 -1 55 3.7976544350385666e-02</internalNodes>
          <leafValues>
            -2.7951109409332275e-01 5.2988052368164063e-01</leafValues></_>
        <_>
          <internalNodes>
            0 -1 50 5.2768550813198090e-03</internalNodes>
          <leafValues>
            -1.5204773843288422e-01 7.0390117168426514e-01</leafValues></_>
        <_>
          <internalNodes>
            0 -1 134 -2.5466175749897957e-02</internalNodes>
          <leafValues>
            5.3625470399856567e-01 -1.9031783938407898e-01</leafValues></_></weakClassifiers></_>
    <!-- stage 4 -->
    <_>
      <maxWeakCount>9</maxWeakCount>
      <stageThreshold>-1.8728063106536865e+00</stageThreshold>
      <weakClassifiers>
        <_>
          <internalNodes>
            0 -1 233 2.0952325314283371e-02</internalNodes>
          <leafValues>
            -8.0364108085632324e-01 3.7569060921669006e-01</leafValues></_>
        <_>
          <internalNodes>
            0 -1 166 2.6002824306488037e-02</internalNodes>
          <leafValues>
            -5.4409319162368774e-01 2.0322874188423157e-01</leafValues></_>
        <_>
          <internalNodes>
            0 -1 1 -1.9050763919949532e-02</internalNodes>
          <leafValues>
            5.3786408901214600e-01 -2.4573142826557159e-01</leafValues></_>
        <_>
          <internalNodes>
            0 -1 150 8.3803664892911911e-03</internalNodes>
          <leafValues>
            -1.6811764240264893e-01 5.9628278017044067e-01</leafValues></_>
        <_>
          <internalNodes>
            0 -1 130 -1.6230877488851547e-02</internalNodes>
          <leafValues>
            3.7492156028747559e-01 -2.8137016296386719e-01</leafValues></_>
        <_>
          <internalNodes>
            0 -1 232 -8.4340553730726242e-03</internalNodes>
          <leafValues>
            7.9337197542190552e-01 -1.3386602699756622e-01</leafValues></_>
        <_>
          <internalNodes>
            0 -1 45 7.8814756125211716e-03</internalNodes>
          <leafValues>
            -1.0066453367471695e-01 7.2787946462631226e-01</leafValues></_>
        <_>
          <internalNodes>
            0 -1 48 2.6637548580765724e-02</internalNodes>
          <leafValues>
            -2.0111019909381866e-01 4.1563943028450012e-01</leafValues></_>
        <_>
          <internalNodes>
            0 -1 120 -1.3978247530758381e-02</internalNodes>
          <leafValues>
            5.0851929187774658e-01 -1.5861254930496216e-01</leafValues></_></weakClassifiers></_>
    <!-- stage 5 -->
    <_>
      <maxWeakCount>8</maxWeakCount>
      <stageThreshold>-1.8402978181838989e+00</stageThreshold>
      <weakClassifiers>
        <_>
          <internalNodes>
            0 -1 68 -2.0615586638450623e-01</internalNodes>
          <leafValues>
            2.4883720278739929e-01 -8.2108843326568604e-01</leafValues></_>
        <_>
          <internalNodes>
            0 -1 237 1.4471418580797035e-05</internalNodes>
          <leafValues>
            -6.3981688022613525e-01 4.1678640246391296e-01</leafValues></_>
        <_>
          <internalNodes>
            0 -1 209 1.2104733286832925e-05</internalNodes>
          <leafValues>
            -4.5555928349494934e-01 4.9510872364044189e-01</leafValues></_>
        <_>
          <internalNodes>
            0 -1 162 -1.3831851902068593e-05</internalNodes>
          <leafValues>
            5.5519616603851318e-01 -4.1194826364517212e-01</leafValues></_>
        <_>
          <internalNodes>
            0 -1 33 -1.2786984370904975e-05</internalNodes>
          <leafValues>
            5.5737036466598511e-01 -3.4927585721015930e-01</leafValues></_>
        <_>
          <internalNodes>
            0 -1 234 1.3337847121874802e-05</internalNodes>
          <leafValues>
            -3.5152971744537354e-01 5.4054701328277588e-01</leafValues></_>
        <_>
          <internalNodes>
            0 -1 80 -1.3221987501310650e-05</internalNodes>
          <leafValues>
            5.2847594022750854e-01 -3.3776542544364929e-01</leafValues></_>
        <_>
          <internalNodes>
            0 -1 92 -3.3678170293569565e-02</internalNodes>
          <leafValues>
            6.2003976106643677e-01 -2.6622021198272705e-01</leafValues></_></weakClassifiers></_>
    <!-- stage 6 -->
    <_>
      <maxWeakCount>9</maxWeakCount>
      <stageThreshold>-1.9362154006958008e+00</stageThreshold>
      <weakClassifiers>
        <_>
          <internalNodes>
            0 -1 176 6.8709120154380798e-02</internalNodes>
          <leafValues>
            -7.9283154010772705e-01 1.1881188489496708e-02</leafValues></_>
        <_>
          <internalNodes>
            0 -1 4 -7.9636082053184509e-02</internalNodes>
          <leafValues>
            3.5058271884918213e-01 -7.1878641843795776e-01</leafValues></_>
        <_>
          <internalNodes>
            0 -1 248 1.2701783816737588e-05</internalNodes>
          <leafValues>
            -4.8510608077049255e-01 4.0602132678031921e-01</leafValues></_>
        <_>
          <internalNodes>
            0 -1 196 -1.3341165868041571e-05</internalNodes>
          <leafValues>
            4.7011110186576843e-01 -3.7870213389396667e-01</leafValues></_>
        <_>
          <internalNodes>
            0 -1 87 -1.3240463886177167e-05</internalNodes>
          <leafValues>
            5.2403169870376587e-01 -3.0186367034912109e-01</leafValues></_>
        <_>
          <internalNodes>
            0 -1 24 -3.3182881772518158e-02</internalNodes>
          <leafValues>
            5.6908500194549561e-01 -2.8321164846420288e-01</leafValues></_>
        <_>
          <internalNodes>
            0 -1 239 -2.5546997785568237e-03</internalNodes>
          <leafValues>
            2.2964699566364288e-01 -7.5034153461456299e-01</leafValues></_>
        <_>
          <internalNodes>
            0 -1 194 1.2551616237033159e-05</internalNodes>
          <leafValues>
            -3.7911719083786011e-01 4.3246400356292725e-01</leafValues></_>
        <_>
          <internalNodes>
            0 -1 124 -1.3321659025677945e-05</internalNodes>
          <leafValues>
            4.8194819688796997e-01 -3.1484577059745789e-01</leafValues></_></weakClassifiers></_>
    <!-- stage 7 -->
    <_>
      <maxWeakCount>11</maxWeakCount>
      <stageThreshold>-1.9416317939758301e+00</stageThreshold>
      <weakClassifiers>
        <_>
          <internalNodes>
            0 -1 181 -2.0694229751825333e-03</internalNodes>
          <leafValues>
            -7.8108465671539307e-01 2.0876288414001465e-01</leafValues></_>
        <_>
          <internalNodes>
            0 -1 56 -2.2683528065681458e-01</internalNodes>
          <leafValues>
            -7.6195806264877319e-01 1.3215525448322296e-01</leafValues></_>
        <_>
          <internalNodes>
            0 -1 104 -1.2615239938895684e-05</internalNodes>
          <leafValues>
            3.2902467250823975e-01 -3.5635814070701599e-01</leafValues></_>
        <_>
          <internalNodes>
            0 -1 247 -6.7856535315513611e-02</internalNodes>
          <leafValues>
            -7.5616288185119629e-01 1.6563136875629425e-01</leafValues></_>
        <_>
          <internalNodes>
            0 -1 223 2.5868982076644897e-02</internalNodes>
          <leafValues>
            -3.2030436396598816e-01 4.8077115416526794e-01</leafValues></_>
        <_>
          <internalNodes>
            0 -1 101 1.5946127474308014e-02</internalNodes>
          <leafValues>
            -1.8871825933456421e-01 5.3405541181564331e-01</leafValues></_>
        <_>
          <internalNodes>
            0 -1 70 -1.2664748282986693e-05</internalNodes>
          <leafValues>
            3.3688339591026306e-01 -3.1182539463043213e-01</leafValues></_>
        <_>
          <internalNodes>
            0 -1 214 -1.3198917258705478e-05</internalNodes>
          <leafValues>
            3.4598624706268311e-01 -2.7156427502632141e-01</leafValues></_>
        <_>
          <internalNodes>
            0 -1 282 -2.3547580931335688e-03</internalNodes>
          <leafValues>
            1.3513295352458954e-01 -7.2782242298126221e-01</leafValues></_>
        <_>
          <internalNodes>
            0 -1 141 -6.9840522482991219e-03</internalNodes>
          <leafValues>
            -1.9685967266559601e-01 5.5858939886093140e-01</leafValues></_>
        <_>
          <internalNodes>
            0 -1 66 1.0350678861141205e-01</internalNodes>
          <leafValues>
            -1.4241005480289459e-01 5.9367603063583374e-01</leafValues></_></weakClassifiers></_>
    <!-- stage 8 -->
    <_>
      <maxWeakCount>13</maxWeakCount>
      <stageThreshold>-1.6528638601303101e+00</stageThreshold>
      <weakClassifiers>
        <_>
          <internalNodes>
            0 -1 168 -7.9989470541477203e-03</internalNodes>
          <leafValues>
            -7.2840255498886108e-01 4.0518963336944580e-01</leafValues></_>
        <_>
          <internalNodes>
            0 -1 174 7.7313959598541260e-02</internalNodes>
          <leafValues>
            -4.0725007653236389e-01 2.5759848952293396e-01</leafValues></_>
        <_>
          <internalNodes>
            0 -1 257 -1.3486796990036964e-02</internalNodes>
          <leafValues>
            -6.0500913858413696e-01 1.6891516745090485e-01</leafValues></_>
        <_>
          <internalNodes>
            0 -1 71 -1.2786984370904975e-05</internalNodes>
          <leafValues>
            3.6954727768898010e-01 -3.2711037993431091e-01</leafValues></_>
        <_>
          <internalNodes>
            0 -1 71 -1.2641113717108965e-03</internalNodes>
          <leafValues>
            -7.2408336400985718e-01 1.5624986588954926e-01</leafValues></_>
        <_>
          <internalNodes>
            0 -1 154 -1.3420862160273828e-05</internalNodes>
          <leafValues>
            3.0199772119522095e-01 -3.4135890007019043e-01</leafValues></_>
        <_>
          <internalNodes>
            0 -1 244 1.3655032962560654e-03</internalNodes>
          <leafValues>
            1.2968036532402039e-01 -6.6451001167297363e-01</leafValues></_>
        <_>
          <internalNodes>
            0 -1 177 6.4227608963847160e-03</internalNodes>
          <leafValues>
            -1.5247912704944611e-01 5.9488117694854736e-01</leafValues></_>
        <_>
          <internalNodes>
            0 -1 86 -1.2669727766478900e-05</internalNodes>
          <leafValues>
            3.0931583046913147e-01 -2.6523798704147339e-01</leafValues></_>
        <_>
          <internalNodes>
            0 -1 9 -3.9630886167287827e-02</internalNodes>
          <leafValues>
            5.1036167144775391e-01 -1.6591665148735046e-01</leafValues></_>
        <_>
          <internalNodes>
            0 -1 19 -6.2916457653045654e-02</internalNodes>
          <leafValues>
            -4.9609047174453735e-01 1.9098217785358429e-01</leafValues></_>
        <_>
          <internalNodes>
            0 -1 54 -1.3221987501310650e-05</internalNodes>
          <leafValues>
            2.8419777750968933e-01 -3.0993086099624634e-01</leafValues></_>
        <_>
          <internalNodes>
            0 -1 250 -2.8254687786102295e-03</internalNodes>
          <leafValues>
            1.3937586545944214e-01 -5.9980916976928711e-01</leafValues></_></weakClassifiers></_>
    <!-- stage 9 -->
    <_>
      <maxWeakCount>15</maxWeakCount>
      <stageThreshold>-1.8077082633972168e+00</stageThreshold>
      <weakClassifiers>
        <_>
          <internalNodes>
            0 -1 215 1.4404124158318155e-05</internalNodes>
          <leafValues>
            -7.9883253574371338e-01 -2.6764145493507385e-01</leafValues></_>
        <_>
          <internalNodes>
            0 -1 62 -5.5131860077381134e-02</internalNodes>
          <leafValues>
            3.0505663156509399e-01 -3.8424986600875854e-01</leafValues></_>
        <_>
          <internalNodes>
            0 -1 240 -5.7161180302500725e-04</internalNodes>
          <leafValues>
            -5.9540027379989624e-01 1.5149037539958954e-01</leafValues></_>
        <_>
          <internalNodes>
            0 -1 139 -1.0782602429389954e-01</internalNodes>
          <leafValues>
            -5.1920086145401001e-01 2.1686051785945892e-01</leafValues></_>
        <_>
          <internalNodes>
            0 -1 140 -1.1903478480235208e-05</internalNodes>
          <leafValues>
            3.1606987118721008e-01 -3.0681183934211731e-01</leafValues></_>
        <_>
          <internalNodes>
            0 -1 119 -1.3190208846936002e-05</internalNodes>
          <leafValues>
            3.1349757313728333e-01 -2.9387292265892029e-01</leafValues></_>
        <_>
          <internalNodes>
            0 -1 180 5.0282437354326248e-02</internalNodes>
          <leafValues>
            -2.6579162478446960e-01 3.2428103685379028e-01</leafValues></_>
        <_>
          <internalNodes>
            0 -1 241 -8.0250430619344115e-04</internalNodes>
          <leafValues>
            -5.5301880836486816e-01 1.5282587707042694e-01</leafValues></_>
        <_>
          <internalNodes>
            0 -1 278 -1.7825764371082187e-03</internalNodes>
          <leafValues>
            -5.7972615957260132e-01 1.3603574037551880e-01</leafValues></_>
        <_>
          <internalNodes>
            0 -1 187 9.3250692589208484e-04</internalNodes>
          <leafValues>
            9.4514384865760803e-02 -7.1022063493728638e-01</leafValues></_>
        <_>
          <internalNodes>
            0 -1 253 1.1374102905392647e-02</internalNodes>
          <leafValues>
            -1.2451837211847305e-01 6.4516001939773560e-01</leafValues></_>
        <_>
          <internalNodes>
            0 -1 172 -6.4064636826515198e-02</internalNodes>
          <leafValues>
            -7.2512459754943848e-01 1.1795812100172043e-01</leafValues></_>
        <_>
          <internalNodes>
            0 -1 36 -1.2664748282986693e-05</internalNodes>
          <leafValues>
            2.6878651976585388e-01 -2.7537697553634644e-01</leafValues></_>
        <_>
          <internalNodes>
            0 -1 236 -1.2104733286832925e-05</internalNodes>
          <leafValues>
            2.9484283924102783e-01 -2.5313940644264221e-01</leafValues></_>
        <_>
          <internalNodes>
            0 -1 75 -1.2130071809224319e-05</internalNodes>
          <leafValues>
            2.7790006995201111e-01 -2.4036565423011780e-01</leafValues></_></weakClassifiers></_>
    <!-- stage 10 -->
    <_>
      <maxWeakCount>8</maxWeakCount>
      <stageThreshold>-1.7234709262847900e+00</stageThreshold>
      <weakClassifiers>
        <_>
          <internalNodes>
            0 -1 21 -1.1568541824817657e-01</internalNodes>
          <leafValues>
            -8.7789303064346313e-01 6.6225145249624364e-17</leafValues></_>
        <_>
          <internalNodes>
            0 -1 43 -1.2603193521499634e-01</internalNodes>
          <leafValues>
            -6.9123250246047974e-01 5.7036541402339935e-02</leafValues></_>
        <_>
          <internalNodes>
            0 -1 161 1.4827724546194077e-02</internalNodes>
          <leafValues>
            -3.9283961057662964e-01 2.7684479951858521e-01</leafValues></_>
        <_>
          <internalNodes>
            0 -1 183 1.1553633958101273e-02</internalNodes>
          <leafValues>
            -1.9585643708705902e-01 5.0524717569351196e-01</leafValues></_>
        <_>
          <internalNodes>
            0 -1 113 -3.7287272512912750e-02</internalNodes>
          <leafValues>
            -6.9706857204437256e-01 1.1581176519393921e-01</leafValues></_>
        <_>
          <internalNodes>
            0 -1 147 -1.7188163474202156e-02</internalNodes>
          <leafValues>
            5.2382218837738037e-01 -1.5098270773887634e-01</leafValues></_>
        <_>
          <internalNodes>
            0 -1 280 -3.2048714347183704e-03</internalNodes>
          <leafValues>
            1.6696274280548096e-01 -4.9820360541343689e-01</leafValues></_>
        <_>
          <internalNodes>
            0 -1 129 -1.3472984544932842e-02</internalNodes>
          <leafValues>
            3.0255892872810364e-01 -2.6948636770248413e-01</leafValues></_></weakClassifiers></_>
    <!-- stage 11 -->
    <_>
      <maxWeakCount>14</maxWeakCount>
      <stageThreshold>-1.8477135896682739e+00</stageThreshold>
      <weakClassifiers>
        <_>
          <internalNodes>
            0 -1 158 -1.9008112139999866e-03</internalNodes>
          <leafValues>
            -6.8200117349624634e-01 5.3416150808334351e-01</leafValues></_>
        <_>
          <internalNodes>
            0 -1 10 -4.6905791759490967e-01</internalNodes>
          <leafValues>
            -6.8685585260391235e-01 1.8625213205814362e-01</leafValues></_>
        <_>
          <internalNodes>
            0 -1 59 -2.3941239714622498e-01</internalNodes>
          <leafValues>
            -7.3487061262130737e-01 8.0183714628219604e-02</leafValues></_>
        <_>
          <internalNodes>
            0 -1 280 -2.3390441201627254e-03</internalNodes>
          <leafValues>
            1.1088427156209946e-01 -7.9968255758285522e-01</leafValues></_>
        <_>
          <internalNodes>
            0 -1 206 -1.1903478480235208e-05</internalNodes>
          <leafValues>
            3.3581614494323730e-01 -2.5520709156990051e-01</leafValues></_>
        <_>
          <internalNodes>
            0 -1 189 -1.0118226055055857e-04</internalNodes>
          <leafValues>
            2.7956780791282654e-01 -3.0829799175262451e-01</leafValues></_>
        <_>
          <internalNodes>
            0 -1 226 2.6018457487225533e-02</internalNodes>
          <leafValues>
            -2.1368567645549774e-01 4.1431155800819397e-01</leafValues></_>
        <_>
          <internalNodes>
            0 -1 47 -1.3321659025677945e-05</internalNodes>
          <leafValues>
            3.1625470519065857e-01 -2.6043814420700073e-01</leafValues></_>
        <_>
          <internalNodes>
            0 -1 93 -1.5252987854182720e-02</internalNodes>
          <leafValues>
            -4.9993380904197693e-02 9.5222008228302002e-01</leafValues></_>
        <_>
          <internalNodes>
            0 -1 51 -2.4272473528981209e-03</internalNodes>
          <leafValues>
            1.7393079400062561e-01 -4.2151892185211182e-01</leafValues></_>
        <_>
          <internalNodes>
            0 -1 111 -1.2130071809224319e-05</internalNodes>
          <leafValues>
            2.6176518201828003e-01 -2.6785591244697571e-01</leafValues></_>
        <_>
          <internalNodes>
            0 -1 256 -2.8388634324073792e-02</internalNodes>
          <leafValues>
            -5.2859663963317871e-01 1.4705808460712433e-01</leafValues></_>
        <_>
          <internalNodes>
            0 -1 217 -9.3680946156382561e-04</internalNodes>
          <leafValues>
            -5.3907173871994019e-01 1.2593671679496765e-01</leafValues></_>
        <_>
          <internalNodes>
            0 -1 15 -3.8564100861549377e-01</internalNodes>
          <leafValues>
            -7.7765935659408569e-01 5.7838115841150284e-02</leafValues></_></weakClassifiers></_>
    <!-- stage 12 -->
    <_>
      <maxWeakCount>18</maxWeakCount>
      <stageThreshold>-1.7015115022659302e+00</stageThreshold>
      <weakClassifiers>
        <_>
          <internalNodes>
            0 -1 8 -1.6301970928907394e-02</internalNodes>
          <leafValues>
            1.8279570341110229e-01 -6.8515741825103760e-01</leafValues></_>
        <_>
          <internalNodes>
            0 -1 227 2.6505932211875916e-02</internalNodes>
          <leafValues>
            -3.9608415961265564e-01 2.6610955595970154e-01</leafValues></_>
        <_>
          <internalNodes>
            0 -1 57 -1.3202343881130219e-01</internalNodes>
          <leafValues>
            2.1533451974391937e-01 -5.8581358194351196e-01</leafValues></_>
        <_>
          <internalNodes>
            0 -1 103 3.2143712043762207e-02</internalNodes>
          <leafValues>
            -1.7900161445140839e-01 4.7172495722770691e-01</leafValues></_>
        <_>
          <internalNodes>
            0 -1 213 -1.3198917258705478e-05</internalNodes>
          <leafValues>
            2.9185020923614502e-01 -2.5874403119087219e-01</leafValues></_>
        <_>
          <internalNodes>
            0 -1 53 -2.4385448545217514e-02</internalNodes>
          <leafValues>
            3.9947003126144409e-01 -1.9002725183963776e-01</leafValues></_>
        <_>
          <internalNodes>
            0 -1 61 -2.8418393805623055e-02</internalNodes>
          <leafValues>
            4.4882607460021973e-01 -1.5798936784267426e-01</leafValues></_>
        <_>
          <internalNodes>
            0 -1 30 -7.9947318881750107e-03</internalNodes>
          <leafValues>
            -6.3185042142868042e-01 1.3537283241748810e-01</leafValues></_>
        <_>
          <internalNodes>
            0 -1 18 -1.4701819047331810e-02</internalNodes>
          <leafValues>
            5.4959934949874878e-01 -1.5896137058734894e-01</leafValues></_>
        <_>
          <internalNodes>
            0 -1 204 5.2225040271878242e-03</internalNodes>
          <leafValues>
            -2.2989287972450256e-01 3.1931319832801819e-01</leafValues></_>
        <_>
          <internalNodes>
            0 -1 190 -1.2638642147067003e-05</internalNodes>
          <leafValues>
            2.3961773514747620e-01 -2.8887143731117249e-01</leafValues></_>
        <_>
          <internalNodes>
            0 -1 133 6.0489801689982414e-03</internalNodes>
          <leafValues>
            -1.9123043119907379e-01 3.7842735648155212e-01</leafValues></_>
        <_>
          <internalNodes>
            0 -1 275 -1.2383295688778162e-03</internalNodes>
          <leafValues>
            -4.5991343259811401e-01 1.5144675970077515e-01</leafValues></_>
        <_>
          <internalNodes>
            0 -1 199 -9.2417709529399872e-03</internalNodes>
          <leafValues>
            4.9601894617080688e-01 -1.4485858380794525e-01</leafValues></_>
        <_>
          <internalNodes>
            0 -1 125 6.3656242564320564e-03</internalNodes>
          <leafValues>
            -2.0665183663368225e-01 3.0658125877380371e-01</leafValues></_>
        <_>
          <internalNodes>
            0 -1 252 -4.9900653539225459e-04</internalNodes>
          <leafValues>
            -4.8425206542015076e-01 1.5327289700508118e-01</leafValues></_>
        <_>
          <internalNodes>
            0 -1 65 -1.3341165868041571e-05</internalNodes>
          <leafValues>
            2.2759003937244415e-01 -3.1624329090118408e-01</leafValues></_>
        <_>
          <internalNodes>
            0 -1 39 -1.9721088465303183e-03</internalNodes>
          <leafValues>
            1.3691100478172302e-01 -4.7021335363388062e-01</leafValues></_></weakClassifiers></_>
    <!-- stage 13 -->
    <_>
      <maxWeakCount>17</maxWeakCount>
      <stageThreshold>-1.8678919076919556e+00</stageThreshold>
      <weakClassifiers>
        <_>
          <internalNodes>
            0 -1 182 -2.1174517460167408e-03</internalNodes>
          <leafValues>
            -6.8960469961166382e-01 4.0259739756584167e-01</leafValues></_>
        <_>
          <internalNodes>
            0 -1 219 1.9364908337593079e-02</internalNodes>
          <leafValues>
            -4.5721995830535889e-01 3.3900165557861328e-01</leafValues></_>
        <_>
          <internalNodes>
            0 -1 164 -2.1386197209358215e-01</internalNodes>
          <leafValues>
            -5.9924614429473877e-01 1.4467602968215942e-01</leafValues></_>
        <_>
          <internalNodes>
            0 -1 250 -2.2708480246365070e-03</internalNodes>
          <leafValues>
            1.2188246101140976e-01 -7.2866600751876831e-01</leafValues></_>
        <_>
          <internalNodes>
            0 -1 110 -1.4195707626640797e-03</internalNodes>
          <leafValues>
            -1.4946827292442322e-01 6.3390660285949707e-01</leafValues></_>
        <_>
          <internalNodes>
            0 -1 229 -6.4293118193745613e-03</internalNodes>
          <leafValues>
            7.3020428419113159e-01 -1.5875695645809174e-01</leafValues></_>
        <_>
          <internalNodes>
            0 -1 123 -1.1485481081763282e-04</internalNodes>
          <leafValues>
            3.8152012228965759e-01 -1.9305935502052307e-01</leafValues></_>
        <_>
          <internalNodes>
            0 -1 270 -2.5756214745342731e-03</internalNodes>
          <leafValues>
            1.3891944289207458e-01 -7.0082855224609375e-01</leafValues></_>
        <_>
          <internalNodes>
            0 -1 265 -2.4774467572569847e-02</internalNodes>
          <leafValues>
            -7.1025300025939941e-01 7.3703691363334656e-02</leafValues></_>
        <_>
          <internalNodes>
            0 -1 29 -7.1991160511970520e-02</internalNodes>
          <leafValues>
            -5.3469818830490112e-01 1.2584264576435089e-01</leafValues></_>
        <_>
          <internalNodes>
            0 -1 173 -6.1013791710138321e-03</internalNodes>
          <leafValues>
            7.1711219847202301e-02 -6.5015178918838501e-01</leafValues></_>
        <_>
          <internalNodes>
            0 -1 160 -1.5153526328504086e-03</internalNodes>
          <leafValues>
            -9.5686011016368866e-02 8.0184149742126465e-01</leafValues></_>
        <_>
          <internalNodes>
            0 -1 131 -2.6293279370293021e-04</internalNodes>
          <leafValues>
            3.3400371670722961e-01 -1.6667811572551727e-01</leafValues></_>
        <_>
          <internalNodes>
            0 -1 122 -1.2023061513900757e-02</internalNodes>
          <leafValues>
            4.5418065786361694e-01 -1.2315524369478226e-01</leafValues></_>
        <_>
          <internalNodes>
            0 -1 107 2.7788269799202681e-03</internalNodes>
          <leafValues>
            -1.3017931580543518e-01 3.6260819435119629e-01</leafValues></_>
        <_>
          <internalNodes>
            0 -1 145 -1.4498336240649223e-03</internalNodes>
          <leafValues>
            -1.0168985277414322e-01 4.8487925529479980e-01</leafValues></_>
        <_>
          <internalNodes>
            0 -1 220 -2.4877022951841354e-03</internalNodes>
          <leafValues>
            8.0875821411609650e-02 -7.4668490886688232e-01</leafValues></_></weakClassifiers></_>
    <!-- stage 14 -->
    <_>
      <maxWeakCount>24</maxWeakCount>
      <stageThreshold>-1.8424665927886963e+00</stageThreshold>
      <weakClassifiers>
        <_>
          <internalNodes>
            0 -1 171 -7.5078877853229642e-04</internalNodes>
          <leafValues>
            -6.6742080450057983e-01 6.0606062412261963e-01</leafValues></_>
        <_>
          <internalNodes>
            0 -1 230 2.9226575046777725e-02</internalNodes>
          <leafValues>
            -3.3491465449333191e-01 3.3430969715118408e-01</leafValues></_>
        <_>
          <internalNodes>
            0 -1 242 -1.0342711210250854e-01</internalNodes>
          <leafValues>
            -6.3476794958114624e-01 1.0494351387023926e-01</leafValues></_>
        <_>
          <internalNodes>
            0 -1 16 3.8709020614624023e-01</internalNodes>
          <leafValues>
            1.4345446228981018e-01 -6.7937088012695313e-01</leafValues></_>
        <_>
          <internalNodes>
            0 -1 105 -6.8857253063470125e-04</internalNodes>
          <leafValues>
            -1.0965608805418015e-01 8.0613905191421509e-01</leafValues></_>
        <_>
          <internalNodes>
            0 -1 73 8.7269570212811232e-04</internalNodes>
          <leafValues>
            -1.3303238153457642e-01 4.8081976175308228e-01</leafValues></_>
        <_>
          <internalNodes>
            0 -1 156 1.7707259394228458e-03</internalNodes>
          <leafValues>
            -1.1959442496299744e-01 4.6925666928291321e-01</leafValues></_>
        <_>
          <internalNodes>
            0 -1 238 3.9236215525306761e-04</internalNodes>
          <leafValues>
            2.0107759535312653e-01 -2.6228711009025574e-01</leafValues></_>
        <_>
          <internalNodes>
            0 -1 281 -2.8374555986374617e-03</internalNodes>
          <leafValues>
            1.1134082823991776e-01 -5.4052799940109253e-01</leafValues></_>
        <_>
          <internalNodes>
            0 -1 266 2.2418104112148285e-02</internalNodes>
          <leafValues>
            8.7234601378440857e-02 -7.7195787429809570e-01</leafValues></_>
        <_>
          <internalNodes>
            0 -1 149 -1.0465759551152587e-03</internalNodes>
          <leafValues>
            -1.1817248165607452e-01 5.3715491294860840e-01</leafValues></_>
        <_>
          <internalNodes>
            0 -1 201 -1.2794301146641374e-03</internalNodes>
          <leafValues>
            3.2754790782928467e-01 -1.9105283915996552e-01</leafValues></_>
        <_>
          <internalNodes>
            0 -1 170 -1.1892192997038364e-03</internalNodes>
          <leafValues>
            3.5765346884727478e-01 -1.4104668796062469e-01</leafValues></_>
        <_>
          <internalNodes>
            0 -1 100 7.1526500396430492e-03</internalNodes>
          <leafValues>
            -1.1465577781200409e-01 4.6442365646362305e-01</leafValues></_>
        <_>
          <internalNodes>
            0 -1 144 -4.8251124098896980e-03</internalNodes>
          <leafValues>
            3.4602451324462891e-01 -1.6135686635971069e-01</leafValues></_>
        <_>
          <internalNodes>
            0 -1 108 -1.2827559839934111e-03</internalNodes>
          <leafValues>
            3.0017834901809692e-01 -1.6676679253578186e-01</leafValues></_>
        <_>
          <internalNodes>
            0 -1 58 3.5991093609482050e-03</internalNodes>
          <leafValues>
            -1.0069023072719574e-01 4.8883464932441711e-01</leafValues></_>
        <_>
          <internalNodes>
            0 -1 157 3.9946208707988262e-03</internalNodes>
          <leafValues>
            -7.9964548349380493e-02 5.4182308912277222e-01</leafValues></_>
        <_>
          <internalNodes>
            0 -1 34 -9.3147918581962585e-02</internalNodes>
          <leafValues>
            -5.1904118061065674e-01 1.0627738386392593e-01</leafValues></_>
        <_>
          <internalNodes>
            0 -1 31 -1.5625635161995888e-02</internalNodes>
          <leafValues>
            1.1723837256431580e-01 -3.7725037336349487e-01</leafValues></_>
        <_>
          <internalNodes>
            0 -1 98 -1.0676425881683826e-03</internalNodes>
          <leafValues>
            -1.0724729299545288e-01 5.0070106983184814e-01</leafValues></_>
        <_>
          <internalNodes>
            0 -1 273 -2.5533055886626244e-03</internalNodes>
          <leafValues>
            1.2010879069566727e-01 -4.5793992280960083e-01</leafValues></_>
        <_>
          <internalNodes>
            0 -1 231 -3.5341607872396708e-03</internalNodes>
          <leafValues>
            5.5973821878433228e-01 -1.0549772530794144e-01</leafValues></_>
        <_>
          <internalNodes>
            0 -1 142 -1.2429233640432358e-02</internalNodes>
          <leafValues>
            2.3181983828544617e-01 -2.3830850422382355e-01</leafValues></_></weakClassifiers></_>
    <!-- stage 15 -->
    <_>
      <maxWeakCount>17</maxWeakCount>
      <stageThreshold>-1.5027096271514893e+00</stageThreshold>
      <weakClassifiers>
        <_>
          <internalNodes>
            0 -1 184 -5.1364600658416748e-03</internalNodes>
          <leafValues>
            -7.2868740558624268e-01 -5.4502367973327637e-02</leafValues></_>
        <_>
          <internalNodes>
            0 -1 2 -2.9578006267547607e-01</internalNodes>
          <leafValues>
            -6.3197320699691772e-01 7.0404998958110809e-02</leafValues></_>
        <_>
          <internalNodes>
            0 -1 117 -4.5406147837638855e-02</internalNodes>
          <leafValues>
            4.7681057453155518e-01 -1.8835972249507904e-01</leafValues></_>
        <_>
          <internalNodes>
            0 -1 251 -2.5815928820520639e-03</internalNodes>
          <leafValues>
            9.9341221153736115e-02 -7.1930354833602905e-01</leafValues></_>
        <_>
          <internalNodes>
            0 -1 243 -8.5561815649271011e-03</internalNodes>
          <leafValues>
            -7.6498401165008545e-01 1.0574769228696823e-01</leafValues></_>
        <_>
          <internalNodes>
            0 -1 106 -2.4681688955752179e-05</internalNodes>
          <leafValues>
            3.3445030450820923e-01 -2.1133844554424286e-01</leafValues></_>
        <_>
          <internalNodes>
            0 -1 210 -4.1696801781654358e-04</internalNodes>
          <leafValues>
            -4.7940471768379211e-01 1.1830692738294601e-01</leafValues></_>
        <_>
          <internalNodes>
            0 -1 224 2.7248706668615341e-02</internalNodes>
          <leafValues>
            -1.4542531967163086e-01 4.2362800240516663e-01</leafValues></_>
        <_>
          <internalNodes>
            0 -1 135 -1.2664748282986693e-05</internalNodes>
          <leafValues>
            2.1491357684135437e-01 -2.7564883232116699e-01</leafValues></_>
        <_>
          <internalNodes>
            0 -1 137 -2.4129971279762685e-05</internalNodes>
          <leafValues>
            2.3558422923088074e-01 -2.4797905981540680e-01</leafValues></_>
        <_>
          <internalNodes>
            0 -1 259 5.1768810953944921e-04</internalNodes>
          <leafValues>
            1.0609063506126404e-01 -4.9627152085304260e-01</leafValues></_>
        <_>
          <internalNodes>
            0 -1 95 -2.8784394264221191e-02</internalNodes>
          <leafValues>
            5.0606036186218262e-01 -1.1171814799308777e-01</leafValues></_>
        <_>
          <internalNodes>
            0 -1 155 -3.7074834108352661e-03</internalNodes>
          <leafValues>
            -1.3676008582115173e-01 3.6728537082672119e-01</leafValues></_>
        <_>
          <internalNodes>
            0 -1 28 -2.9319223016500473e-02</internalNodes>
          <leafValues>
            5.9189182519912720e-01 -8.1155858933925629e-02</leafValues></_>
        <_>
          <internalNodes>
            0 -1 112 3.4272624179720879e-03</internalNodes>
          <leafValues>
            -8.5658594965934753e-02 5.1728755235671997e-01</leafValues></_>
        <_>
          <internalNodes>
            0 -1 23 -1.5511363744735718e-02</internalNodes>
          <leafValues>
            -7.9325133562088013e-01 6.9043509662151337e-02</leafValues></_>
        <_>
          <internalNodes>
            0 -1 191 -2.6588990294840187e-05</internalNodes>
          <leafValues>
            1.9870509207248688e-01 -2.5580933690071106e-01</leafValues></_></weakClassifiers></_>
    <!-- stage 16 -->
    <_>
      <maxWeakCount>28</maxWeakCount>
      <stageThreshold>-1.7495646476745605e+00</stageThreshold>
      <weakClassifiers>
        <_>
          <internalNodes>
            0 -1 79 -1.3108032941818237e-01</internalNodes>
          <leafValues>
            -6.6617339849472046e-01 1.2114014476537704e-01</leafValues></_>
        <_>
          <internalNodes>
            0 -1 245 3.4522134810686111e-03</internalNodes>
          <leafValues>
            -2.2698473930358887e-01 3.6097559332847595e-01</leafValues></_>
        <_>
          <internalNodes>
            0 -1 46 -2.8034237027168274e-01</internalNodes>
          <leafValues>
            -8.8039702177047729e-01 6.2572017312049866e-02</leafValues></_>
        <_>
          <internalNodes>
            0 -1 197 3.7418890278786421e-03</internalNodes>
          <leafValues>
            -2.3743353784084320e-01 2.8159174323081970e-01</leafValues></_>
        <_>
          <internalNodes>
            0 -1 271 -1.8619932234287262e-02</internalNodes>
          <leafValues>
            -7.7387237548828125e-01 9.1572970151901245e-02</leafValues></_>
        <_>
          <internalNodes>
            0 -1 42 4.5781275257468224e-03</internalNodes>
          <leafValues>
            -1.1214593052864075e-01 5.3437227010726929e-01</leafValues></_>
        <_>
          <internalNodes>
            0 -1 212 -4.9446839839220047e-03</internalNodes>
          <leafValues>
            3.8146466016769409e-01 -1.3947638869285583e-01</leafValues></_>
        <_>
          <internalNodes>
            0 -1 17 -1.2213978916406631e-02</internalNodes>
          <leafValues>
            3.3192047476768494e-01 -1.5031053125858307e-01</leafValues></_>
        <_>
          <internalNodes>
            0 -1 72 -1.8126863986253738e-02</internalNodes>
          <leafValues>
            2.3389966785907745e-01 -2.2290797531604767e-01</leafValues></_>
        <_>
          <internalNodes>
            0 -1 67 4.6377960825338960e-04</internalNodes>
          <leafValues>
            -9.8971731960773468e-02 4.2953556776046753e-01</leafValues></_>
        <_>
          <internalNodes>
            0 -1 63 -1.3267650268971920e-02</internalNodes>
          <leafValues>
            2.4514554440975189e-01 -1.7605036497116089e-01</leafValues></_>
        <_>
          <internalNodes>
            0 -1 279 -2.1120607852935791e-03</internalNodes>
          <leafValues>
            8.1972762942314148e-02 -5.5311173200607300e-01</leafValues></_>
        <_>
          <internalNodes>
            0 -1 192 -1.4745574444532394e-03</internalNodes>
          <leafValues>
            -1.6262254118919373e-01 3.3663108944892883e-01</leafValues></_>
        <_>
          <internalNodes>
            0 -1 132 2.2388271987438202e-02</internalNodes>
          <leafValues>
            -7.2384528815746307e-02 5.5902338027954102e-01</leafValues></_>
        <_>
          <internalNodes>
            0 -1 268 -2.6767319068312645e-03</internalNodes>
          <leafValues>
            6.7632667720317841e-02 -6.6020768880844116e-01</leafValues></_>
        <_>
          <internalNodes>
            0 -1 151 -5.3659630939364433e-03</internalNodes>
          <leafValues>
            4.4499751925468445e-01 -1.0383136570453644e-01</leafValues></_>
        <_>
          <internalNodes>
            0 -1 277 -6.7748231813311577e-03</internalNodes>
          <leafValues>
            -7.6806175708770752e-01 5.9877663850784302e-02</leafValues></_>
        <_>
          <internalNodes>
            0 -1 216 6.0619635041803122e-04</internalNodes>
          <leafValues>
            1.5393155813217163e-01 -2.7915534377098083e-01</leafValues></_>
        <_>
          <internalNodes>
            0 -1 195 -4.7608632594347000e-02</internalNodes>
          <leafValues>
            -5.8589893579483032e-01 6.8979479372501373e-02</leafValues></_>
        <_>
          <internalNodes>
            0 -1 88 1.0611589066684246e-02</internalNodes>
          <leafValues>
            -1.1018605530261993e-01 4.5136189460754395e-01</leafValues></_>
        <_>
          <internalNodes>
            0 -1 274 -2.5148661807179451e-03</internalNodes>
          <leafValues>
            1.1696637421846390e-01 -4.0981376171112061e-01</leafValues></_>
        <_>
          <internalNodes>
            0 -1 136 -1.6543391393497586e-03</internalNodes>
          <leafValues>
            -8.7907470762729645e-02 5.1293408870697021e-01</leafValues></_>
        <_>
          <internalNodes>
            0 -1 52 6.4603373408317566e-02</internalNodes>
          <leafValues>
            7.7869698405265808e-02 -5.5611872673034668e-01</leafValues></_>
        <_>
          <internalNodes>
            0 -1 3 -7.7040517330169678e-01</internalNodes>
          <leafValues>
            -8.5300457477569580e-01 3.3880103379487991e-02</leafValues></_>
        <_>
          <internalNodes>
            0 -1 64 2.3330249823629856e-03</internalNodes>
          <leafValues>
            -1.3882324099540710e-01 2.7069032192230225e-01</leafValues></_>
        <_>
          <internalNodes>
            0 -1 15 -4.0476483106613159e-01</internalNodes>
          <leafValues>
            -6.3198459148406982e-01 6.2641158699989319e-02</leafValues></_>
        <_>
          <internalNodes>
            0 -1 14 -7.3776883073151112e-03</internalNodes>
          <leafValues>
            9.5539465546607971e-02 -4.3310591578483582e-01</leafValues></_>
        <_>
          <internalNodes>
            0 -1 262 -3.2812310382723808e-04</internalNodes>
          <leafValues>
            -3.5466733574867249e-01 9.2608161270618439e-02</leafValues></_></weakClassifiers></_>
    <!-- stage 17 -->
    <_>
      <maxWeakCount>13</maxWeakCount>
      <stageThreshold>-1.7057946920394897e+00</stageThreshold>
      <weakClassifiers>
        <_>
          <internalNodes>
            0 -1 84 -1.1165712773799896e-01</internalNodes>
          <leafValues>
            -7.6635158061981201e-01 -1.4978355169296265e-01</leafValues></_>
        <_>
          <internalNodes>
            0 -1 6 -3.3300167322158813e-01</internalNodes>
          <leafValues>
            -7.0818716287612915e-01 6.7455857992172241e-02</leafValues></_>
        <_>
          <internalNodes>
            0 -1 74 -1.3341165868041571e-05</internalNodes>
          <leafValues>
            2.6040956377983093e-01 -2.7786955237388611e-01</leafValues></_>
        <_>
          <internalNodes>
            0 -1 38 -4.7988336882553995e-04</internalNodes>
          <leafValues>
            -3.9760050177574158e-01 1.7458383738994598e-01</leafValues></_>
        <_>
          <internalNodes>
            0 -1 262 3.5646153264679015e-04</internalNodes>
          <leafValues>
            1.9673690199851990e-01 -4.0385290980339050e-01</leafValues></_>
        <_>
          <internalNodes>
            0 -1 255 -5.0488986074924469e-02</internalNodes>
          <leafValues>
            -8.8923352956771851e-01 2.3009160533547401e-02</leafValues></_>
        <_>
          <internalNodes>
            0 -1 222 5.4444517008960247e-03</internalNodes>
          <leafValues>
            -2.8064817190170288e-01 3.0215215682983398e-01</leafValues></_>
        <_>
          <internalNodes>
            0 -1 35 -2.5024744682013988e-03</internalNodes>
          <leafValues>
            1.1690147221088409e-01 -4.3150350451469421e-01</leafValues></_>
        <_>
          <internalNodes>
            0 -1 12 -2.6846803724765778e-02</internalNodes>
          <leafValues>
            -9.2722183465957642e-01 4.4803142547607422e-02</leafValues></_>
        <_>
          <internalNodes>
            0 -1 40 -1.9042856991291046e-02</internalNodes>
          <leafValues>
            5.3855199366807938e-02 -6.7263603210449219e-01</leafValues></_>
        <_>
          <internalNodes>
            0 -1 218 -1.1987427715212107e-03</internalNodes>
          <leafValues>
            -4.4655075669288635e-01 1.2149090319871902e-01</leafValues></_>
        <_>
          <internalNodes>
            0 -1 165 -4.5284545049071312e-03</internalNodes>
          <leafValues>
            -1.3070027530193329e-01 4.1156616806983948e-01</leafValues></_>
        <_>
          <internalNodes>
            0 -1 205 -1.2130071809224319e-05</internalNodes>
          <leafValues>
            2.5353249907493591e-01 -2.1110789477825165e-01</leafValues></_></weakClassifiers></_>
    <!-- stage 18 -->
    <_>
      <maxWeakCount>30</maxWeakCount>
      <stageThreshold>-1.6897348165512085e+00</stageThreshold>
      <weakClassifiers>
        <_>
          <internalNodes>
            0 -1 94 -4.5925835147500038e-03</internalNodes>
          <leafValues>
            -6.1894392967224121e-01 5.8730161190032959e-01</leafValues></_>
        <_>
          <internalNodes>
            0 -1 146 -1.0434664785861969e-01</internalNodes>
          <leafValues>
            -5.7841581106185913e-01 8.2869999110698700e-02</leafValues></_>
        <_>
          <internalNodes>
            0 -1 11 -5.4710991680622101e-03</internalNodes>
          <leafValues>
            -7.6838535070419312e-01 6.2673240900039673e-02</leafValues></_>
        <_>
          <internalNodes>
            0 -1 272 -2.3886619601398706e-03</internalNodes>
          <leafValues>
            1.1879596114158630e-01 -5.3701734542846680e-01</leafValues></_>
        <_>
          <internalNodes>
            0 -1 264 6.5832929685711861e-03</internalNodes>
          <leafValues>
            8.0166384577751160e-02 -5.9069401025772095e-01</leafValues></_>
        <_>
          <internalNodes>
            0 -1 179 -1.6566015547141433e-03</internalNodes>
          <leafValues>
            -1.6774073243141174e-01 2.9856562614440918e-01</leafValues></_>
        <_>
          <internalNodes>
            0 -1 81 2.3228880017995834e-03</internalNodes>
          <leafValues>
            -1.3217963278293610e-01 3.5419133305549622e-01</leafValues></_>
        <_>
          <internalNodes>
            0 -1 263 -3.9086394826881588e-04</internalNodes>
          <leafValues>
            -6.1940544843673706e-01 6.7260168492794037e-02</leafValues></_>
        <_>
          <internalNodes>
            0 -1 261 5.3614302305504680e-04</internalNodes>
          <leafValues>
            1.3293150067329407e-01 -3.2025909423828125e-01</leafValues></_>
        <_>
          <internalNodes>
            0 -1 249 -1.2649679556488991e-02</internalNodes>
          <leafValues>
            7.9869881272315979e-02 -7.0404994487762451e-01</leafValues></_>
        <_>
          <internalNodes>
            0 -1 235 -5.6760283187031746e-03</internalNodes>
          <leafValues>
            5.9373480081558228e-01 -1.0346386581659317e-01</leafValues></_>
        <_>
          <internalNodes>
            0 -1 152 -2.7087386697530746e-02</internalNodes>
          <leafValues>
            4.6241813898086548e-01 -7.3566071689128876e-02</leafValues></_>
        <_>
          <internalNodes>
            0 -1 159 -1.2979619204998016e-03</internalNodes>
          <leafValues>
            -1.2295328080654144e-01 3.4464427828788757e-01</leafValues></_>
        <_>
          <internalNodes>
            0 -1 82 4.8920590430498123e-02</internalNodes>
          <leafValues>
            -9.3414343893527985e-02 5.2108383178710938e-01</leafValues></_>
        <_>
          <internalNodes>
            0 -1 70 -1.2664748282986693e-05</internalNodes>
          <leafValues>
            1.8925008177757263e-01 -2.2512277960777283e-01</leafValues></_>
        <_>
          <internalNodes>
            0 -1 276 -6.8734879605472088e-03</internalNodes>
          <leafValues>
            1.1033574491739273e-01 -3.8821133971214294e-01</leafValues></_>
        <_>
          <internalNodes>
            0 -1 207 -1.3198917258705478e-05</internalNodes>
          <leafValues>
            2.0730434358119965e-01 -1.8570956587791443e-01</leafValues></_>
        <_>
          <internalNodes>
            0 -1 193 -1.0144596453756094e-03</internalNodes>
          <leafValues>
            -9.4710268080234528e-02 4.3487682938575745e-01</leafValues></_>
        <_>
          <internalNodes>
            0 -1 32 -1.0465845465660095e-02</internalNodes>
          <leafValues>
            7.4562475085258484e-02 -5.1933175325393677e-01</leafValues></_>
        <_>
          <internalNodes>
            0 -1 254 7.6029025949537754e-03</internalNodes>
          <leafValues>
            -1.4824751019477844e-01 2.6715776324272156e-01</leafValues></_>
        <_>
          <internalNodes>
            0 -1 69 -2.2615951020270586e-03</internalNodes>
          <leafValues>
            2.0269161462783813e-01 -1.8420079350471497e-01</leafValues></_>
        <_>
          <internalNodes>
            0 -1 13 1.1907014995813370e-02</internalNodes>
          <leafValues>
            -7.6219581067562103e-02 5.6395274400711060e-01</leafValues></_>
        <_>
          <internalNodes>
            0 -1 60 -8.0519378185272217e-02</internalNodes>
          <leafValues>
            -6.9765347242355347e-01 5.6255046278238297e-02</leafValues></_>
        <_>
          <internalNodes>
            0 -1 90 -1.3341165868041571e-05</internalNodes>
          <leafValues>
            1.5352922677993774e-01 -2.3892472684383392e-01</leafValues></_>
        <_>
          <internalNodes>
            0 -1 188 -3.1701534986495972e-02</internalNodes>
          <leafValues>
            -5.0822478532791138e-01 7.3159843683242798e-02</leafValues></_>
        <_>
          <internalNodes>
            0 -1 114 1.0091753676533699e-02</internalNodes>
          <leafValues>
            -5.9615008533000946e-02 5.8203750848770142e-01</leafValues></_>
        <_>
          <internalNodes>
            0 -1 127 -3.1901618931442499e-03</internalNodes>
          <leafValues>
            4.1396707296371460e-01 -8.4944412112236023e-02</leafValues></_>
        <_>
          <internalNodes>
            0 -1 153 -6.2063154473435134e-05</internalNodes>
          <leafValues>
            1.5746739506721497e-01 -2.2223068773746490e-01</leafValues></_>
        <_>
          <internalNodes>
            0 -1 118 -3.9253197610378265e-02</internalNodes>
          <leafValues>
            2.8166958689689636e-01 -1.2513624131679535e-01</leafValues></_>
        <_>
          <internalNodes>
            0 -1 102 4.7899086028337479e-02</internalNodes>
          <leafValues>
            -1.3902717828750610e-01 3.2536548376083374e-01</leafValues></_></weakClassifiers></_>
    <!-- stage 19 -->
    <_>
      <maxWeakCount>33</maxWeakCount>
      <stageThreshold>-1.6307600736618042e+00</stageThreshold>
      <weakClassifiers>
        <_>
          <internalNodes>
            0 -1 186 -4.0211868472397327e-03</internalNodes>
          <leafValues>
            -6.8062990903854370e-01 -6.2399998307228088e-02</leafValues></_>
        <_>
          <internalNodes>
            0 -1 221 4.1424809023737907e-03</internalNodes>
          <leafValues>
            -3.6628028750419617e-01 1.2388283014297485e-01</leafValues></_>
        <_>
          <internalNodes>
            0 -1 178 -1.3308620452880859e-01</internalNodes>
          <leafValues>
            -3.7235981225967407e-01 1.5650315582752228e-01</leafValues></_>
        <_>
          <internalNodes>
            0 -1 267 -3.9579540491104126e-02</internalNodes>
          <leafValues>
            -6.9801247119903564e-01 5.2231479436159134e-02</leafValues></_>
        <_>
          <internalNodes>
            0 -1 138 -3.1452949624508619e-03</internalNodes>
          <leafValues>
            3.5331588983535767e-01 -1.1559050530195236e-01</leafValues></_>
        <_>
          <internalNodes>
            0 -1 260 5.9096119366586208e-04</internalNodes>
          <leafValues>
            1.3305844366550446e-01 -2.7927947044372559e-01</leafValues></_>
        <_>
          <internalNodes>
            0 -1 208 -2.1062018349766731e-03</internalNodes>
          <leafValues>
            4.5066472887992859e-01 -7.9331025481224060e-02</leafValues></_>
        <_>
          <internalNodes>
            0 -1 76 2.4391520768404007e-02</internalNodes>
          <leafValues>
            -1.2851838767528534e-01 2.8323423862457275e-01</leafValues></_>
        <_>
          <internalNodes>
            0 -1 262 3.5449181450530887e-04</internalNodes>
          <leafValues>
            1.1293805390596390e-01 -3.9424794912338257e-01</leafValues></_>
        <_>
          <internalNodes>
            0 -1 167 -3.2518953084945679e-02</internalNodes>
          <leafValues>
            6.0569870471954346e-01 -4.4824734330177307e-02</leafValues></_>
        <_>
          <internalNodes>
            0 -1 99 -3.1520361080765724e-03</internalNodes>
          <leafValues>
            -6.0999535024166107e-02 5.1310640573501587e-01</leafValues></_>
        <_>
          <internalNodes>
            0 -1 7 -1.1784767732024193e-02</internalNodes>
          <leafValues>
            6.5047450363636017e-02 -6.0740429162979126e-01</leafValues></_>
        <_>
          <internalNodes>
            0 -1 85 1.1474582424852997e-04</internalNodes>
          <leafValues>
            -1.1045645922422409e-01 3.0465096235275269e-01</leafValues></_>
        <_>
          <internalNodes>
            0 -1 169 2.5997422635555267e-03</internalNodes>
          <leafValues>
            -1.2002119421958923e-01 2.8761917352676392e-01</leafValues></_>
        <_>
          <internalNodes>
            0 -1 83 5.5442169308662415e-02</internalNodes>
          <leafValues>
            -9.2766754329204559e-02 4.3852198123931885e-01</leafValues></_>
        <_>
          <internalNodes>
            0 -1 203 9.2809032648801804e-03</internalNodes>
          <leafValues>
            -2.2385096549987793e-01 1.7495074868202209e-01</leafValues></_>
        <_>
          <internalNodes>
            0 -1 269 1.7146568745374680e-02</internalNodes>
          <leafValues>
            5.2099954336881638e-02 -6.7656785249710083e-01</leafValues></_>
        <_>
          <internalNodes>
            0 -1 148 -4.3501649051904678e-03</internalNodes>
          <leafValues>
            -1.0805457830429077e-01 3.7619850039482117e-01</leafValues></_>
        <_>
          <internalNodes>
            0 -1 258 -8.5381455719470978e-03</internalNodes>
          <leafValues>
            6.0743469744920731e-02 -6.8901842832565308e-01</leafValues></_>
        <_>
          <internalNodes>
            0 -1 211 -1.8291953951120377e-02</internalNodes>
          <leafValues>
            7.3472154140472412e-01 -6.1031024903059006e-02</leafValues></_>
        <_>
          <internalNodes>
            0 -1 163 -7.9335732152685523e-05</internalNodes>
          <leafValues>
            1.3616317510604858e-01 -2.5374332070350647e-01</leafValues></_>
        <_>
          <internalNodes>
            0 -1 97 -9.2212297022342682e-03</internalNodes>
          <leafValues>
            2.4925802648067474e-01 -1.3511684536933899e-01</leafValues></_>
        <_>
          <internalNodes>
            0 -1 37 -2.5255203945562243e-04</internalNodes>
          <leafValues>
            -4.1290783882141113e-01 7.9729400575160980e-02</leafValues></_>
        <_>
          <internalNodes>
            0 -1 20 -6.0650572180747986e-02</internalNodes>
          <leafValues>
            -6.7282706499099731e-01 4.1853539645671844e-02</leafValues></_>
        <_>
          <internalNodes>
            0 -1 246 -1.8448753282427788e-02</internalNodes>
          <leafValues>
            -3.0385011434555054e-01 9.6165485680103302e-02</leafValues></_>
        <_>
          <internalNodes>
            0 -1 91 -2.8270438313484192e-01</internalNodes>
          <leafValues>
            3.7516748905181885e-01 -8.7101779878139496e-02</leafValues></_>
        <_>
          <internalNodes>
            0 -1 121 -2.7093114331364632e-02</internalNodes>
          <leafValues>
            5.1275807619094849e-01 -5.8151654899120331e-02</leafValues></_>
        <_>
          <internalNodes>
            0 -1 96 -1.1410498991608620e-02</internalNodes>
          <leafValues>
            -8.8277839124202728e-02 3.5751011967658997e-01</leafValues></_>
        <_>
          <internalNodes>
            0 -1 109 -5.6020369811449200e-05</internalNodes>
          <leafValues>
            1.8877829611301422e-01 -1.6051894426345825e-01</leafValues></_>
        <_>
          <internalNodes>
            0 -1 198 5.9394524432718754e-03</internalNodes>
          <leafValues>
            -1.5882857143878937e-01 1.8588195741176605e-01</leafValues></_>
        <_>
          <internalNodes>
            0 -1 238 -4.5415322529152036e-04</internalNodes>
          <leafValues>
            -4.4407853484153748e-01 6.3170924782752991e-02</leafValues></_>
        <_>
          <internalNodes>
            0 -1 77 2.3974557407200336e-03</internalNodes>
          <leafValues>
            -1.1707152426242828e-01 2.7599844336509705e-01</leafValues></_>
        <_>
          <internalNodes>
            0 -1 115 1.0118186473846436e-02</internalNodes>
          <leafValues>
            -6.9055780768394470e-02 4.7492399811744690e-01</leafValues></_></weakClassifiers></_></stages>
  <features>
    <_>
      <rects>
        <_>
          0 0 3 12 -1.</_>
        <_>
          1 0 1 12 2.</_></rects>
      <tilted>0</tilted></_>
    <_>
      <rects>
        <_>
          0 0 6 18 -1.</_>
        <_>
          0 0 3 9 2.</_>
        <_>
          3 9 3 9 2.</_></rects>
      <tilted>0</tilted></_>
    <_>
      <rects>
        <_>
          0 0 16 9 -1.</_>
        <_>
          0 3 16 3 2.</_></rects>
      <tilted>0</tilted></_>
    <_>
      <rects>
        <_>
          0 0 21 24 -1.</_>
        <_>
          0 12 21 12 2.</_></rects>
      <tilted>0</tilted></_>
    <_>
      <rects>
        <_>
          0 0 22 22 -1.</_>
        <_>
          0 11 22 11 2.</_></rects>
      <tilted>0</tilted></_>
    <_>
      <rects>
        <_>
          0 1 1 3 -1.</_>
        <_>
          0 2 1 1 2.</_></rects>
      <tilted>0</tilted></_>
    <_>
      <rects>
        <_>
          0 1 9 18 -1.</_>
        <_>
          3 1 3 18 2.</_></rects>
      <tilted>0</tilted></_>
    <_>
      <rects>
        <_>
          0 3 3 6 -1.</_>
        <_>
          0 5 3 2 2.</_></rects>
      <tilted>0</tilted></_>
    <_>
      <rects>
        <_>
          0 4 4 12 -1.</_>
        <_>
          2 4 2 12 2.</_></rects>
      <tilted>0</tilted></_>
    <_>
      <rects>
        <_>
          0 4 6 15 -1.</_>
        <_>
          3 4 3 15 2.</_></rects>
      <tilted>0</tilted></_>
    <_>
      <rects>
        <_>
          0 4 14 18 -1.</_>
        <_>
          0 10 14 6 2.</_></rects>
      <tilted>0</tilted></_>
    <_>
      <rects>
        <_>
          0 5 4 2 -1.</_>
        <_>
          0 6 4 1 2.</_></rects>
      <tilted>0</tilted></_>
    <_>
      <rects>
        <_>
          0 5 22 2 -1.</_>
        <_>
          0 6 22 1 2.</_></rects>
      <tilted>0</tilted></_>
    <_>
      <rects>
        <_>
          0 7 4 7 -1.</_>
        <_>
          2 7 2 7 2.</_></rects>
      <tilted>0</tilted></_>
    <_>
      <rects>
        <_>
          0 7 3 3 -1.</_>
        <_>
          0 8 3 1 2.</_></rects>
      <tilted>0</tilted></_>
    <_>
      <rects>
        <_>
          0 7 22 17 -1.</_>
        <_>
          11 7 11 17 2.</_></rects>
      <tilted>0</tilted></_>
    <_>
      <rects>
        <_>
          0 7 24 17 -1.</_>
        <_>
          12 7 12 17 2.</_></rects>
      <tilted>0</tilted></_>
    <_>
      <rects>
        <_>
          0 8 4 11 -1.</_>
        <_>
          2 8 2 11 2.</_></rects>
      <tilted>0</tilted></_>
    <_>
      <rects>
        <_>
          0 8 6 10 -1.</_>
        <_>
          0 8 3 5 2.</_>
        <_>
          3 13 3 5 2.</_></rects>
      <tilted>0</tilted></_>
    <_>
      <rects>
        <_>
          0 8 5 6 -1.</_>
        <_>
          0 10 5 2 2.</_></rects>
      <tilted>0</tilted></_>
    <_>
      <rects>
        <_>
          0 8 6 8 -1.</_>
        <_>
          0 12 6 4 2.</_></rects>
      <tilted>0</tilted></_>
    <_>
      <rects>
        <_>
          0 8 24 3 -1.</_>
        <_>
          0 9 24 1 2.</_></rects>
      <tilted>0</tilted></_>
    <_>
      <rects>
        <_>
          0 9 4 14 -1.</_>
        <_>
          2 9 2 14 2.</_></rects>
      <tilted>0</tilted></_>
    <_>
      <rects>
        <_>
          0 9 15 2 -1.</_>
        <_>
          0 10 15 1 2.</_></rects>
      <tilted>0</tilted></_>
    <_>
      <rects>
        <_>
          0 10 10 13 -1.</_>
        <_>
          5 10 5 13 2.</_></rects>
      <tilted>0</tilted></_>
    <_>
      <rects>
        <_>
          0 10 20 9 -1.</_>
        <_>
          0 13 20 3 2.</_></rects>
      <tilted>0</tilted></_>
    <_>
      <rects>
        <_>
          0 12 4 5 -1.</_>
        <_>
          2 12 2 5 2.</_></rects>
      <tilted>0</tilted></_>
    <_>
      <rects>
        <_>
          0 12 6 10 -1.</_>
        <_>
          2 12 2 10 2.</_></rects>
      <tilted>0</tilted></_>
    <_>
      <rects>
        <_>
          0 12 4 12 -1.</_>
        <_>
          2 12 2 12 2.</_></rects>
      <tilted>0</tilted></_>
    <_>
      <rects>
        <_>
          0 13 6 6 -1.</_>
        <_>
          0 15 6 2 2.</_></rects>
      <tilted>0</tilted></_>
    <_>
      <rects>
        <_>
          0 14 1 10 -1.</_>
        <_>
          0 19 1 5 2.</_></rects>
      <tilted>0</tilted></_>
    <_>
      <rects>
        <_>
          0 17 3 6 -1.</_>
        <_>
          1 17 1 6 2.</_></rects>
      <tilted>0</tilted></_>
    <_>
      <rects>
        <_>
          0 18 3 6 -1.</_>
        <_>
          0 20 3 2 2.</_></rects>
      <tilted>0</tilted></_>
    <_>
      <rects>
        <_>
          0 20 2 1 -1.</_>
        <_>
          1 20 1 1 2.</_></rects>
      <tilted>0</tilted></_>
    <_>
      <rects>
        <_>
          0 20 18 3 -1.</_>
        <_>
          0 21 18 1 2.</_></rects>
      <tilted>0</tilted></_>
    <_>
      <rects>
        <_>
          0 21 1 3 -1.</_>
        <_>
          0 22 1 1 2.</_></rects>
      <tilted>0</tilted></_>
    <_>
      <rects>
        <_>
          0 22 2 1 -1.</_>
        <_>
          1 22 1 1 2.</_></rects>
      <tilted>0</tilted></_>
    <_>
      <rects>
        <_>
          0 22 1 2 -1.</_>
        <_>
          0 23 1 1 2.</_></rects>
      <tilted>0</tilted></_>
    <_>
      <rects>
        <_>
          0 22 2 2 -1.</_>
        <_>
          1 22 1 2 2.</_></rects>
      <tilted>0</tilted></_>
    <_>
      <rects>
        <_>
          0 23 3 1 -1.</_>
        <_>
          1 23 1 1 2.</_></rects>
      <tilted>0</tilted></_>
    <_>
      <rects>
        <_>
          1 0 15 2 -1.</_>
        <_>
          6 0 5 2 2.</_></rects>
      <tilted>0</tilted></_>
    <_>
      <rects>
        <_>
          1 0 15 24 -1.</_>
        <_>
          6 0 5 24 2.</_></rects>
      <tilted>0</tilted></_>
    <_>
      <rects>
        <_>
          1 1 2 16 -1.</_>
        <_>
          2 1 1 16 2.</_></rects>
      <tilted>0</tilted></_>
    <_>
      <rects>
        <_>
          1 4 10 6 -1.</_>
        <_>
          1 6 10 2 2.</_></rects>
      <tilted>0</tilted></_>
    <_>
      <rects>
        <_>
          1 4 23 6 -1.</_>
        <_>
          1 6 23 2 2.</_></rects>
      <tilted>0</tilted></_>
    <_>
      <rects>
        <_>
          1 6 4 10 -1.</_>
        <_>
          1 6 2 5 2.</_>
        <_>
          3 11 2 5 2.</_></rects>
      <tilted>0</tilted></_>
    <_>
      <rects>
        <_>
          1 11 9 13 -1.</_>
        <_>
          4 11 3 13 2.</_></rects>
      <tilted>0</tilted></_>
    <_>
      <rects>
        <_>
          1 13 1 2 -1.</_>
        <_>
          1 14 1 1 2.</_></rects>
      <tilted>0</tilted></_>
    <_>
      <rects>
        <_>
          1 18 19 6 -1.</_>
        <_>
          1 21 19 3 2.</_></rects>
      <tilted>0</tilted></_>
    <_>
      <rects>
        <_>
          1 18 22 3 -1.</_>
        <_>
          1 19 22 1 2.</_></rects>
      <tilted>0</tilted></_>
    <_>
      <rects>
        <_>
          1 19 8 4 -1.</_>
        <_>
          1 19 4 2 2.</_>
        <_>
          5 21 4 2 2.</_></rects>
      <tilted>0</tilted></_>
    <_>
      <rects>
        <_>
          1 21 3 1 -1.</_>
        <_>
          2 21 1 1 2.</_></rects>
      <tilted>0</tilted></_>
    <_>
      <rects>
        <_>
          2 0 22 3 -1.</_>
        <_>
          13 0 11 3 2.</_></rects>
      <tilted>0</tilted></_>
    <_>
      <rects>
        <_>
          2 6 10 9 -1.</_>
        <_>
          7 6 5 9 2.</_></rects>
      <tilted>0</tilted></_>
    <_>
      <rects>
        <_>
          2 9 1 2 -1.</_>
        <_>
          2 10 1 1 2.</_></rects>
      <tilted>0</tilted></_>
    <_>
      <rects>
        <_>
          2 11 16 12 -1.</_>
        <_>
          2 11 8 6 2.</_>
        <_>
          10 17 8 6 2.</_></rects>
      <tilted>0</tilted></_>
    <_>
      <rects>
        <_>
          2 16 22 6 -1.</_>
        <_>
          2 18 22 2 2.</_></rects>
      <tilted>0</tilted></_>
    <_>
      <rects>
        <_>
          3 0 18 6 -1.</_>
        <_>
          3 2 18 2 2.</_></rects>
      <tilted>0</tilted></_>
    <_>
      <rects>
        <_>
          3 0 20 2 -1.</_>
        <_>
          3 1 20 1 2.</_></rects>
      <tilted>0</tilted></_>
    <_>
      <rects>
        <_>
          4 0 6 17 -1.</_>
        <_>
          6 0 2 17 2.</_></rects>
      <tilted>0</tilted></_>
    <_>
      <rects>
        <_>
          4 0 20 3 -1.</_>
        <_>
          14 0 10 3 2.</_></rects>
      <tilted>0</tilted></_>
    <_>
      <rects>
        <_>
          4 0 10 6 -1.</_>
        <_>
          4 3 10 3 2.</_></rects>
      <tilted>0</tilted></_>
    <_>
      <rects>
        <_>
          4 0 15 8 -1.</_>
        <_>
          4 4 15 4 2.</_></rects>
      <tilted>0</tilted></_>
    <_>
      <rects>
        <_>
          4 1 13 4 -1.</_>
        <_>
          4 3 13 2 2.</_></rects>
      <tilted>0</tilted></_>
    <_>
      <rects>
        <_>
          4 5 4 4 -1.</_>
        <_>
          6 5 2 4 2.</_></rects>
      <tilted>0</tilted></_>
    <_>
      <rects>
        <_>
          4 7 1 2 -1.</_>
        <_>
          4 8 1 1 2.</_></rects>
      <tilted>0</tilted></_>
    <_>
      <rects>
        <_>
          4 9 18 14 -1.</_>
        <_>
          4 9 9 7 2.</_>
        <_>
          13 16 9 7 2.</_></rects>
      <tilted>0</tilted></_>
    <_>
      <rects>
        <_>
          4 16 2 3 -1.</_>
        <_>
          5 16 1 3 2.</_></rects>
      <tilted>0</tilted></_>
    <_>
      <rects>
        <_>
          5 0 17 20 -1.</_>
        <_>
          5 10 17 10 2.</_></rects>
      <tilted>0</tilted></_>
    <_>
      <rects>
        <_>
          5 2 12 2 -1.</_>
        <_>
          5 3 12 1 2.</_></rects>
      <tilted>0</tilted></_>
    <_>
      <rects>
        <_>
          5 4 1 2 -1.</_>
        <_>
          5 5 1 1 2.</_></rects>
      <tilted>0</tilted></_>
    <_>
      <rects>
        <_>
          5 8 1 2 -1.</_>
        <_>
          5 9 1 1 2.</_></rects>
      <tilted>0</tilted></_>
    <_>
      <rects>
        <_>
          5 8 4 12 -1.</_>
        <_>
          5 14 4 6 2.</_></rects>
      <tilted>0</tilted></_>
    <_>
      <rects>
        <_>
          5 10 2 5 -1.</_>
        <_>
          6 10 1 5 2.</_></rects>
      <tilted>0</tilted></_>
    <_>
      <rects>
        <_>
          5 16 1 2 -1.</_>
        <_>
          5 17 1 1 2.</_></rects>
      <tilted>0</tilted></_>
    <_>
      <rects>
        <_>
          5 17 1 2 -1.</_>
        <_>
          5 18 1 1 2.</_></rects>
      <tilted>0</tilted></_>
    <_>
      <rects>
        <_>
          5 20 19 4 -1.</_>
        <_>
          5 22 19 2 2.</_></rects>
      <tilted>0</tilted></_>
    <_>
      <rects>
        <_>
          6 2 14 2 -1.</_>
        <_>
          6 2 7 1 2.</_>
        <_>
          13 3 7 1 2.</_></rects>
      <tilted>0</tilted></_>
    <_>
      <rects>
        <_>
          6 4 4 6 -1.</_>
        <_>
          8 4 2 6 2.</_></rects>
      <tilted>0</tilted></_>
    <_>
      <rects>
        <_>
          6 4 12 16 -1.</_>
        <_>
          10 4 4 16 2.</_></rects>
      <tilted>0</tilted></_>
    <_>
      <rects>
        <_>
          6 7 1 2 -1.</_>
        <_>
          6 8 1 1 2.</_></rects>
      <tilted>0</tilted></_>
    <_>
      <rects>
        <_>
          6 7 4 4 -1.</_>
        <_>
          8 7 2 4 2.</_></rects>
      <tilted>0</tilted></_>
    <_>
      <rects>
        <_>
          6 7 8 14 -1.</_>
        <_>
          6 7 4 7 2.</_>
        <_>
          10 14 4 7 2.</_></rects>
      <tilted>0</tilted></_>
    <_>
      <rects>
        <_>
          6 9 14 7 -1.</_>
        <_>
          13 9 7 7 2.</_></rects>
      <tilted>0</tilted></_>
    <_>
      <rects>
        <_>
          6 12 12 10 -1.</_>
        <_>
          10 12 4 10 2.</_></rects>
      <tilted>0</tilted></_>
    <_>
      <rects>
        <_>
          6 14 2 1 -1.</_>
        <_>
          7 14 1 1 2.</_></rects>
      <tilted>0</tilted></_>
    <_>
      <rects>
        <_>
          6 15 1 2 -1.</_>
        <_>
          6 16 1 1 2.</_></rects>
      <tilted>0</tilted></_>
    <_>
      <rects>
        <_>
          6 16 1 2 -1.</_>
        <_>
          6 17 1 1 2.</_></rects>
      <tilted>0</tilted></_>
    <_>
      <rects>
        <_>
          6 22 15 2 -1.</_>
        <_>
          6 23 15 1 2.</_></rects>
      <tilted>0</tilted></_>
    <_>
      <rects>
        <_>
          7 0 9 24 -1.</_>
        <_>
          10 0 3 24 2.</_></rects>
      <tilted>0</tilted></_>
    <_>
      <rects>
        <_>
          7 6 1 2 -1.</_>
        <_>
          7 7 1 1 2.</_></rects>
      <tilted>0</tilted></_>
    <_>
      <rects>
        <_>
          7 7 15 10 -1.</_>
        <_>
          12 7 5 10 2.</_></rects>
      <tilted>0</tilted></_>
    <_>
      <rects>
        <_>
          7 8 12 8 -1.</_>
        <_>
          13 8 6 8 2.</_></rects>
      <tilted>0</tilted></_>
    <_>
      <rects>
        <_>
          7 11 12 5 -1.</_>
        <_>
          11 11 4 5 2.</_></rects>
      <tilted>0</tilted></_>
    <_>
      <rects>
        <_>
          7 12 12 4 -1.</_>
        <_>
          11 12 4 4 2.</_></rects>
      <tilted>0</tilted></_>
    <_>
      <rects>
        <_>
          7 12 12 10 -1.</_>
        <_>
          7 12 6 5 2.</_>
        <_>
          13 17 6 5 2.</_></rects>
      <tilted>0</tilted></_>
    <_>
      <rects>
        <_>
          7 13 9 3 -1.</_>
        <_>
          10 13 3 3 2.</_></rects>
      <tilted>0</tilted></_>
    <_>
      <rects>
        <_>
          7 13 14 4 -1.</_>
        <_>
          7 15 14 2 2.</_></rects>
      <tilted>0</tilted></_>
    <_>
      <rects>
        <_>
          7 18 3 1 -1.</_>
        <_>
          8 18 1 1 2.</_></rects>
      <tilted>0</tilted></_>
    <_>
      <rects>
        <_>
          7 18 6 2 -1.</_>
        <_>
          9 18 2 2 2.</_></rects>
      <tilted>0</tilted></_>
    <_>
      <rects>
        <_>
          7 22 14 2 -1.</_>
        <_>
          7 23 14 1 2.</_></rects>
      <tilted>0</tilted></_>
    <_>
      <rects>
        <_>
          8 6 12 8 -1.</_>
        <_>
          8 6 6 4 2.</_>
        <_>
          14 10 6 4 2.</_></rects>
      <tilted>0</tilted></_>
    <_>
      <rects>
        <_>
          8 7 12 13 -1.</_>
        <_>
          14 7 6 13 2.</_></rects>
      <tilted>0</tilted></_>
    <_>
      <rects>
        <_>
          8 12 12 12 -1.</_>
        <_>
          8 12 6 6 2.</_>
        <_>
          14 18 6 6 2.</_></rects>
      <tilted>0</tilted></_>
    <_>
      <rects>
        <_>
          8 17 1 2 -1.</_>
        <_>
          8 18 1 1 2.</_></rects>
      <tilted>0</tilted></_>
    <_>
      <rects>
        <_>
          8 17 3 1 -1.</_>
        <_>
          9 17 1 1 2.</_></rects>
      <tilted>0</tilted></_>
    <_>
      <rects>
        <_>
          8 18 1 2 -1.</_>
        <_>
          8 19 1 1 2.</_></rects>
      <tilted>0</tilted></_>
    <_>
      <rects>
        <_>
          9 2 4 6 -1.</_>
        <_>
          9 2 2 3 2.</_>
        <_>
          11 5 2 3 2.</_></rects>
      <tilted>0</tilted></_>
    <_>
      <rects>
        <_>
          9 5 4 2 -1.</_>
        <_>
          9 6 4 1 2.</_></rects>
      <tilted>0</tilted></_>
    <_>
      <rects>
        <_>
          9 16 1 2 -1.</_>
        <_>
          9 17 1 1 2.</_></rects>
      <tilted>0</tilted></_>
    <_>
      <rects>
        <_>
          9 16 1 3 -1.</_>
        <_>
          9 17 1 1 2.</_></rects>
      <tilted>0</tilted></_>
    <_>
      <rects>
        <_>
          9 17 1 2 -1.</_>
        <_>
          9 18 1 1 2.</_></rects>
      <tilted>0</tilted></_>
    <_>
      <rects>
        <_>
          9 20 1 4 -1.</_>
        <_>
          9 22 1 2 2.</_></rects>
      <tilted>0</tilted></_>
    <_>
      <rects>
        <_>
          9 21 6 3 -1.</_>
        <_>
          11 21 2 3 2.</_></rects>
      <tilted>0</tilted></_>
    <_>
      <rects>
        <_>
          9 22 7 2 -1.</_>
        <_>
          9 23 7 1 2.</_></rects>
      <tilted>0</tilted></_>
    <_>
      <rects>
        <_>
          9 22 11 2 -1.</_>
        <_>
          9 23 11 1 2.</_></rects>
      <tilted>0</tilted></_>
    <_>
      <rects>
        <_>
          10 0 6 24 -1.</_>
        <_>
          12 0 2 24 2.</_></rects>
      <tilted>0</tilted></_>
    <_>
      <rects>
        <_>
          10 0 12 6 -1.</_>
        <_>
          10 3 12 3 2.</_></rects>
      <tilted>0</tilted></_>
    <_>
      <rects>
        <_>
          10 5 8 19 -1.</_>
        <_>
          14 5 4 19 2.</_></rects>
      <tilted>0</tilted></_>
    <_>
      <rects>
        <_>
          10 8 1 2 -1.</_>
        <_>
          10 9 1 1 2.</_></rects>
      <tilted>0</tilted></_>
    <_>
      <rects>
        <_>
          10 9 6 15 -1.</_>
        <_>
          13 9 3 15 2.</_></rects>
      <tilted>0</tilted></_>
    <_>
      <rects>
        <_>
          10 11 6 12 -1.</_>
        <_>
          10 11 3 6 2.</_>
        <_>
          13 17 3 6 2.</_></rects>
      <tilted>0</tilted></_>
    <_>
      <rects>
        <_>
          10 14 12 2 -1.</_>
        <_>
          16 14 6 2 2.</_></rects>
      <tilted>0</tilted></_>
    <_>
      <rects>
        <_>
          10 17 1 2 -1.</_>
        <_>
          10 18 1 1 2.</_></rects>
      <tilted>0</tilted></_>
    <_>
      <rects>
        <_>
          11 11 1 2 -1.</_>
        <_>
          11 12 1 1 2.</_></rects>
      <tilted>0</tilted></_>
    <_>
      <rects>
        <_>
          11 11 8 10 -1.</_>
        <_>
          11 11 4 5 2.</_>
        <_>
          15 16 4 5 2.</_></rects>
      <tilted>0</tilted></_>
    <_>
      <rects>
        <_>
          11 20 6 2 -1.</_>
        <_>
          11 21 6 1 2.</_></rects>
      <tilted>0</tilted></_>
    <_>
      <rects>
        <_>
          11 20 7 4 -1.</_>
        <_>
          11 22 7 2 2.</_></rects>
      <tilted>0</tilted></_>
    <_>
      <rects>
        <_>
          11 22 6 2 -1.</_>
        <_>
          13 22 2 2 2.</_></rects>
      <tilted>0</tilted></_>
    <_>
      <rects>
        <_>
          12 1 7 6 -1.</_>
        <_>
          12 4 7 3 2.</_></rects>
      <tilted>0</tilted></_>
    <_>
      <rects>
        <_>
          12 2 7 8 -1.</_>
        <_>
          12 6 7 4 2.</_></rects>
      <tilted>0</tilted></_>
    <_>
      <rects>
        <_>
          12 3 1 2 -1.</_>
        <_>
          12 4 1 1 2.</_></rects>
      <tilted>0</tilted></_>
    <_>
      <rects>
        <_>
          12 3 4 16 -1.</_>
        <_>
          14 3 2 16 2.</_></rects>
      <tilted>0</tilted></_>
    <_>
      <rects>
        <_>
          12 5 6 10 -1.</_>
        <_>
          12 5 3 5 2.</_>
        <_>
          15 10 3 5 2.</_></rects>
      <tilted>0</tilted></_>
    <_>
      <rects>
        <_>
          12 5 8 18 -1.</_>
        <_>
          16 5 4 18 2.</_></rects>
      <tilted>0</tilted></_>
    <_>
      <rects>
        <_>
          12 9 1 2 -1.</_>
        <_>
          12 10 1 1 2.</_></rects>
      <tilted>0</tilted></_>
    <_>
      <rects>
        <_>
          12 14 3 2 -1.</_>
        <_>
          13 14 1 2 2.</_></rects>
      <tilted>0</tilted></_>
    <_>
      <rects>
        <_>
          12 15 1 2 -1.</_>
        <_>
          12 16 1 1 2.</_></rects>
      <tilted>0</tilted></_>
    <_>
      <rects>
        <_>
          12 15 8 1 -1.</_>
        <_>
          16 15 4 1 2.</_></rects>
      <tilted>0</tilted></_>
    <_>
      <rects>
        <_>
          12 15 11 6 -1.</_>
        <_>
          12 17 11 2 2.</_></rects>
      <tilted>0</tilted></_>
    <_>
      <rects>
        <_>
          12 16 1 2 -1.</_>
        <_>
          12 17 1 1 2.</_></rects>
      <tilted>0</tilted></_>
    <_>
      <rects>
        <_>
          12 16 4 3 -1.</_>
        <_>
          12 17 4 1 2.</_></rects>
      <tilted>0</tilted></_>
    <_>
      <rects>
        <_>
          13 2 8 6 -1.</_>
        <_>
          13 5 8 3 2.</_></rects>
      <tilted>0</tilted></_>
    <_>
      <rects>
        <_>
          13 3 3 21 -1.</_>
        <_>
          14 3 1 21 2.</_></rects>
      <tilted>0</tilted></_>
    <_>
      <rects>
        <_>
          13 6 4 8 -1.</_>
        <_>
          15 6 2 8 2.</_></rects>
      <tilted>0</tilted></_>
    <_>
      <rects>
        <_>
          13 8 1 3 -1.</_>
        <_>
          13 9 1 1 2.</_></rects>
      <tilted>0</tilted></_>
    <_>
      <rects>
        <_>
          13 10 11 6 -1.</_>
        <_>
          13 12 11 2 2.</_></rects>
      <tilted>0</tilted></_>
    <_>
      <rects>
        <_>
          13 11 8 9 -1.</_>
        <_>
          17 11 4 9 2.</_></rects>
      <tilted>0</tilted></_>
    <_>
      <rects>
        <_>
          13 12 3 4 -1.</_>
        <_>
          14 12 1 4 2.</_></rects>
      <tilted>0</tilted></_>
    <_>
      <rects>
        <_>
          13 13 3 1 -1.</_>
        <_>
          14 13 1 1 2.</_></rects>
      <tilted>0</tilted></_>
    <_>
      <rects>
        <_>
          13 16 6 8 -1.</_>
        <_>
          13 16 3 4 2.</_>
        <_>
          16 20 3 4 2.</_></rects>
      <tilted>0</tilted></_>
    <_>
      <rects>
        <_>
          14 3 2 12 -1.</_>
        <_>
          15 3 1 12 2.</_></rects>
      <tilted>0</tilted></_>
    <_>
      <rects>
        <_>
          14 5 6 19 -1.</_>
        <_>
          17 5 3 19 2.</_></rects>
      <tilted>0</tilted></_>
    <_>
      <rects>
        <_>
          14 6 1 2 -1.</_>
        <_>
          14 7 1 1 2.</_></rects>
      <tilted>0</tilted></_>
    <_>
      <rects>
        <_>
          14 9 1 2 -1.</_>
        <_>
          14 10 1 1 2.</_></rects>
      <tilted>0</tilted></_>
    <_>
      <rects>
        <_>
          14 9 2 3 -1.</_>
        <_>
          14 10 2 1 2.</_></rects>
      <tilted>0</tilted></_>
    <_>
      <rects>
        <_>
          14 9 3 4 -1.</_>
        <_>
          14 11 3 2 2.</_></rects>
      <tilted>0</tilted></_>
    <_>
      <rects>
        <_>
          14 12 2 4 -1.</_>
        <_>
          14 14 2 2 2.</_></rects>
      <tilted>0</tilted></_>
    <_>
      <rects>
        <_>
          14 14 3 2 -1.</_>
        <_>
          15 14 1 2 2.</_></rects>
      <tilted>0</tilted></_>
    <_>
      <rects>
        <_>
          14 16 1 3 -1.</_>
        <_>
          14 17 1 1 2.</_></rects>
      <tilted>0</tilted></_>
    <_>
      <rects>
        <_>
          14 18 3 2 -1.</_>
        <_>
          15 18 1 2 2.</_></rects>
      <tilted>0</tilted></_>
    <_>
      <rects>
        <_>
          14 18 10 5 -1.</_>
        <_>
          19 18 5 5 2.</_></rects>
      <tilted>0</tilted></_>
    <_>
      <rects>
        <_>
          15 3 1 2 -1.</_>
        <_>
          15 4 1 1 2.</_></rects>
      <tilted>0</tilted></_>
    <_>
      <rects>
        <_>
          15 4 3 2 -1.</_>
        <_>
          15 5 3 1 2.</_></rects>
      <tilted>0</tilted></_>
    <_>
      <rects>
        <_>
          15 5 9 12 -1.</_>
        <_>
          15 9 9 4 2.</_></rects>
      <tilted>0</tilted></_>
    <_>
      <rects>
        <_>
          15 8 3 3 -1.</_>
        <_>
          16 8 1 3 2.</_></rects>
      <tilted>0</tilted></_>
    <_>
      <rects>
        <_>
          15 8 8 16 -1.</_>
        <_>
          19 8 4 16 2.</_></rects>
      <tilted>0</tilted></_>
    <_>
      <rects>
        <_>
          15 9 6 10 -1.</_>
        <_>
          15 9 3 5 2.</_>
        <_>
          18 14 3 5 2.</_></rects>
      <tilted>0</tilted></_>
    <_>
      <rects>
        <_>
          15 14 3 5 -1.</_>
        <_>
          16 14 1 5 2.</_></rects>
      <tilted>0</tilted></_>
    <_>
      <rects>
        <_>
          15 15 1 6 -1.</_>
        <_>
          15 18 1 3 2.</_></rects>
      <tilted>0</tilted></_>
    <_>
      <rects>
        <_>
          15 16 4 4 -1.</_>
        <_>
          15 16 2 2 2.</_>
        <_>
          17 18 2 2 2.</_></rects>
      <tilted>0</tilted></_>
    <_>
      <rects>
        <_>
          15 17 3 1 -1.</_>
        <_>
          16 17 1 1 2.</_></rects>
      <tilted>0</tilted></_>
    <_>
      <rects>
        <_>
          15 20 9 3 -1.</_>
        <_>
          18 20 3 3 2.</_></rects>
      <tilted>0</tilted></_>
    <_>
      <rects>
        <_>
          15 23 9 1 -1.</_>
        <_>
          18 23 3 1 2.</_></rects>
      <tilted>0</tilted></_>
    <_>
      <rects>
        <_>
          16 0 8 23 -1.</_>
        <_>
          20 0 4 23 2.</_></rects>
      <tilted>0</tilted></_>
    <_>
      <rects>
        <_>
          16 3 3 20 -1.</_>
        <_>
          17 3 1 20 2.</_></rects>
      <tilted>0</tilted></_>
    <_>
      <rects>
        <_>
          16 5 8 18 -1.</_>
        <_>
          20 5 4 18 2.</_></rects>
      <tilted>0</tilted></_>
    <_>
      <rects>
        <_>
          16 8 1 10 -1.</_>
        <_>
          16 13 1 5 2.</_></rects>
      <tilted>0</tilted></_>
    <_>
      <rects>
        <_>
          16 8 6 15 -1.</_>
        <_>
          18 8 2 15 2.</_></rects>
      <tilted>0</tilted></_>
    <_>
      <rects>
        <_>
          16 10 1 3 -1.</_>
        <_>
          16 11 1 1 2.</_></rects>
      <tilted>0</tilted></_>
    <_>
      <rects>
        <_>
          16 10 8 13 -1.</_>
        <_>
          20 10 4 13 2.</_></rects>
      <tilted>0</tilted></_>
    <_>
      <rects>
        <_>
          16 12 1 3 -1.</_>
        <_>
          16 13 1 1 2.</_></rects>
      <tilted>0</tilted></_>
    <_>
      <rects>
        <_>
          16 12 2 3 -1.</_>
        <_>
          16 13 2 1 2.</_></rects>
      <tilted>0</tilted></_>
    <_>
      <rects>
        <_>
          16 14 2 10 -1.</_>
        <_>
          16 19 2 5 2.</_></rects>
      <tilted>0</tilted></_>
    <_>
      <rects>
        <_>
          16 14 3 3 -1.</_>
        <_>
          16 15 3 1 2.</_></rects>
      <tilted>0</tilted></_>
    <_>
      <rects>
        <_>
          16 15 6 8 -1.</_>
        <_>
          16 15 3 4 2.</_>
        <_>
          19 19 3 4 2.</_></rects>
      <tilted>0</tilted></_>
    <_>
      <rects>
        <_>
          16 17 3 3 -1.</_>
        <_>
          16 18 3 1 2.</_></rects>
      <tilted>0</tilted></_>
    <_>
      <rects>
        <_>
          17 0 2 1 -1.</_>
        <_>
          18 0 1 1 2.</_></rects>
      <tilted>0</tilted></_>
    <_>
      <rects>
        <_>
          17 0 6 2 -1.</_>
        <_>
          19 0 2 2 2.</_></rects>
      <tilted>0</tilted></_>
    <_>
      <rects>
        <_>
          17 5 1 2 -1.</_>
        <_>
          17 6 1 1 2.</_></rects>
      <tilted>0</tilted></_>
    <_>
      <rects>
        <_>
          17 8 1 2 -1.</_>
        <_>
          17 9 1 1 2.</_></rects>
      <tilted>0</tilted></_>
    <_>
      <rects>
        <_>
          17 10 1 2 -1.</_>
        <_>
          17 11 1 1 2.</_></rects>
      <tilted>0</tilted></_>
    <_>
      <rects>
        <_>
          17 14 1 3 -1.</_>
        <_>
          17 15 1 1 2.</_></rects>
      <tilted>0</tilted></_>
    <_>
      <rects>
        <_>
          17 16 3 1 -1.</_>
        <_>
          18 16 1 1 2.</_></rects>
      <tilted>0</tilted></_>
    <_>
      <rects>
        <_>
          17 17 2 1 -1.</_>
        <_>
          18 17 1 1 2.</_></rects>
      <tilted>0</tilted></_>
    <_>
      <rects>
        <_>
          17 21 7 3 -1.</_>
        <_>
          17 22 7 1 2.</_></rects>
      <tilted>0</tilted></_>
    <_>
      <rects>
        <_>
          18 6 1 2 -1.</_>
        <_>
          18 7 1 1 2.</_></rects>
      <tilted>0</tilted></_>
    <_>
      <rects>
        <_>
          18 8 6 2 -1.</_>
        <_>
          21 8 3 2 2.</_></rects>
      <tilted>0</tilted></_>
    <_>
      <rects>
        <_>
          18 9 6 2 -1.</_>
        <_>
          21 9 3 2 2.</_></rects>
      <tilted>0</tilted></_>
    <_>
      <rects>
        <_>
          18 10 1 12 -1.</_>
        <_>
          18 16 1 6 2.</_></rects>
      <tilted>0</tilted></_>
    <_>
      <rects>
        <_>
          18 10 6 14 -1.</_>
        <_>
          21 10 3 14 2.</_></rects>
      <tilted>0</tilted></_>
    <_>
      <rects>
        <_>
          18 11 1 6 -1.</_>
        <_>
          18 14 1 3 2.</_></rects>
      <tilted>0</tilted></_>
    <_>
      <rects>
        <_>
          18 11 6 8 -1.</_>
        <_>
          20 11 2 8 2.</_></rects>
      <tilted>0</tilted></_>
    <_>
      <rects>
        <_>
          18 11 6 4 -1.</_>
        <_>
          21 11 3 4 2.</_></rects>
      <tilted>0</tilted></_>
    <_>
      <rects>
        <_>
          18 13 6 2 -1.</_>
        <_>
          21 13 3 2 2.</_></rects>
      <tilted>0</tilted></_>
    <_>
      <rects>
        <_>
          18 14 1 2 -1.</_>
        <_>
          18 15 1 1 2.</_></rects>
      <tilted>0</tilted></_>
    <_>
      <rects>
        <_>
          18 16 1 2 -1.</_>
        <_>
          18 17 1 1 2.</_></rects>
      <tilted>0</tilted></_>
    <_>
      <rects>
        <_>
          18 17 1 2 -1.</_>
        <_>
          18 18 1 1 2.</_></rects>
      <tilted>0</tilted></_>
    <_>
      <rects>
        <_>
          18 17 2 4 -1.</_>
        <_>
          18 19 2 2 2.</_></rects>
      <tilted>0</tilted></_>
    <_>
      <rects>
        <_>
          18 21 2 1 -1.</_>
        <_>
          19 21 1 1 2.</_></rects>
      <tilted>0</tilted></_>
    <_>
      <rects>
        <_>
          19 0 2 2 -1.</_>
        <_>
          20 0 1 2 2.</_></rects>
      <tilted>0</tilted></_>
    <_>
      <rects>
        <_>
          19 8 4 10 -1.</_>
        <_>
          21 8 2 10 2.</_></rects>
      <tilted>0</tilted></_>
    <_>
      <rects>
        <_>
          19 12 2 6 -1.</_>
        <_>
          19 15 2 3 2.</_></rects>
      <tilted>0</tilted></_>
    <_>
      <rects>
        <_>
          19 15 1 2 -1.</_>
        <_>
          19 16 1 1 2.</_></rects>
      <tilted>0</tilted></_>
    <_>
      <rects>
        <_>
          19 16 1 2 -1.</_>
        <_>
          19 17 1 1 2.</_></rects>
      <tilted>0</tilted></_>
    <_>
      <rects>
        <_>
          19 19 2 1 -1.</_>
        <_>
          20 19 1 1 2.</_></rects>
      <tilted>0</tilted></_>
    <_>
      <rects>
        <_>
          19 23 4 1 -1.</_>
        <_>
          21 23 2 1 2.</_></rects>
      <tilted>0</tilted></_>
    <_>
      <rects>
        <_>
          20 0 2 5 -1.</_>
        <_>
          21 0 1 5 2.</_></rects>
      <tilted>0</tilted></_>
    <_>
      <rects>
        <_>
          20 0 4 3 -1.</_>
        <_>
          22 0 2 3 2.</_></rects>
      <tilted>0</tilted></_>
    <_>
      <rects>
        <_>
          20 0 4 20 -1.</_>
        <_>
          22 0 2 20 2.</_></rects>
      <tilted>0</tilted></_>
    <_>
      <rects>
        <_>
          20 1 3 1 -1.</_>
        <_>
          21 1 1 1 2.</_></rects>
      <tilted>0</tilted></_>
    <_>
      <rects>
        <_>
          20 2 2 17 -1.</_>
        <_>
          21 2 1 17 2.</_></rects>
      <tilted>0</tilted></_>
    <_>
      <rects>
        <_>
          20 2 2 22 -1.</_>
        <_>
          21 2 1 22 2.</_></rects>
      <tilted>0</tilted></_>
    <_>
      <rects>
        <_>
          20 3 4 20 -1.</_>
        <_>
          22 3 2 20 2.</_></rects>
      <tilted>0</tilted></_>
    <_>
      <rects>
        <_>
          20 4 4 11 -1.</_>
        <_>
          22 4 2 11 2.</_></rects>
      <tilted>0</tilted></_>
    <_>
      <rects>
        <_>
          20 4 4 20 -1.</_>
        <_>
          22 4 2 20 2.</_></rects>
      <tilted>0</tilted></_>
    <_>
      <rects>
        <_>
          20 5 4 15 -1.</_>
        <_>
          22 5 2 15 2.</_></rects>
      <tilted>0</tilted></_>
    <_>
      <rects>
        <_>
          20 5 4 17 -1.</_>
        <_>
          22 5 2 17 2.</_></rects>
      <tilted>0</tilted></_>
    <_>
      <rects>
        <_>
          20 5 4 19 -1.</_>
        <_>
          22 5 2 19 2.</_></rects>
      <tilted>0</tilted></_>
    <_>
      <rects>
        <_>
          20 6 4 10 -1.</_>
        <_>
          22 6 2 10 2.</_></rects>
      <tilted>0</tilted></_>
    <_>
      <rects>
        <_>
          20 6 4 14 -1.</_>
        <_>
          22 6 2 14 2.</_></rects>
      <tilted>0</tilted></_>
    <_>
      <rects>
        <_>
          20 7 4 5 -1.</_>
        <_>
          22 7 2 5 2.</_></rects>
      <tilted>0</tilted></_>
    <_>
      <rects>
        <_>
          20 8 4 7 -1.</_>
        <_>
          22 8 2 7 2.</_></rects>
      <tilted>0</tilted></_>
    <_>
      <rects>
        <_>
          20 8 4 15 -1.</_>
        <_>
          22 8 2 15 2.</_></rects>
      <tilted>0</tilted></_>
    <_>
      <rects>
        <_>
          20 9 2 1 -1.</_>
        <_>
          21 9 1 1 2.</_></rects>
      <tilted>0</tilted></_>
    <_>
      <rects>
        <_>
          20 9 4 4 -1.</_>
        <_>
          22 9 2 4 2.</_></rects>
      <tilted>0</tilted></_>
    <_>
      <rects>
        <_>
          20 11 1 2 -1.</_>
        <_>
          20 12 1 1 2.</_></rects>
      <tilted>0</tilted></_>
    <_>
      <rects>
        <_>
          20 14 2 1 -1.</_>
        <_>
          21 14 1 1 2.</_></rects>
      <tilted>0</tilted></_>
    <_>
      <rects>
        <_>
          20 23 4 1 -1.</_>
        <_>
          22 23 2 1 2.</_></rects>
      <tilted>0</tilted></_>
    <_>
      <rects>
        <_>
          21 0 3 1 -1.</_>
        <_>
          22 0 1 1 2.</_></rects>
      <tilted>0</tilted></_>
    <_>
      <rects>
        <_>
          21 0 2 2 -1.</_>
        <_>
          22 0 1 2 2.</_></rects>
      <tilted>0</tilted></_>
    <_>
      <rects>
        <_>
          21 0 2 4 -1.</_>
        <_>
          21 0 1 2 2.</_>
        <_>
          22 2 1 2 2.</_></rects>
      <tilted>0</tilted></_>
    <_>
      <rects>
        <_>
          21 0 3 24 -1.</_>
        <_>
          21 12 3 12 2.</_></rects>
      <tilted>0</tilted></_>
    <_>
      <rects>
        <_>
          21 2 3 1 -1.</_>
        <_>
          22 2 1 1 2.</_></rects>
      <tilted>0</tilted></_>
    <_>
      <rects>
        <_>
          21 2 3 2 -1.</_>
        <_>
          21 3 3 1 2.</_></rects>
      <tilted>0</tilted></_>
    <_>
      <rects>
        <_>
          21 6 2 10 -1.</_>
        <_>
          21 6 1 5 2.</_>
        <_>
          22 11 1 5 2.</_></rects>
      <tilted>0</tilted></_>
    <_>
      <rects>
        <_>
          21 8 3 3 -1.</_>
        <_>
          21 9 3 1 2.</_></rects>
      <tilted>0</tilted></_>
    <_>
      <rects>
        <_>
          21 15 3 9 -1.</_>
        <_>
          21 18 3 3 2.</_></rects>
      <tilted>0</tilted></_>
    <_>
      <rects>
        <_>
          21 17 2 1 -1.</_>
        <_>
          22 17 1 1 2.</_></rects>
      <tilted>0</tilted></_>
    <_>
      <rects>
        <_>
          21 18 3 6 -1.</_>
        <_>
          21 20 3 2 2.</_></rects>
      <tilted>0</tilted></_>
    <_>
      <rects>
        <_>
          21 23 3 1 -1.</_>
        <_>
          22 23 1 1 2.</_></rects>
      <tilted>0</tilted></_>
    <_>
      <rects>
        <_>
          22 1 1 3 -1.</_>
        <_>
          22 2 1 1 2.</_></rects>
      <tilted>0</tilted></_>
    <_>
      <rects>
        <_>
          22 1 2 3 -1.</_>
        <_>
          23 1 1 3 2.</_></rects>
      <tilted>0</tilted></_>
    <_>
      <rects>
        <_>
          22 5 2 13 -1.</_>
        <_>
          23 5 1 13 2.</_></rects>
      <tilted>0</tilted></_>
    <_>
      <rects>
        <_>
          22 5 2 18 -1.</_>
        <_>
          23 5 1 18 2.</_></rects>
      <tilted>0</tilted></_>
    <_>
      <rects>
        <_>
          22 7 2 9 -1.</_>
        <_>
          22 10 2 3 2.</_></rects>
      <tilted>0</tilted></_>
    <_>
      <rects>
        <_>
          22 8 2 6 -1.</_>
        <_>
          22 10 2 2 2.</_></rects>
      <tilted>0</tilted></_>
    <_>
      <rects>
        <_>
          22 13 1 6 -1.</_>
        <_>
          22 15 1 2 2.</_></rects>
      <tilted>0</tilted></_>
    <_>
      <rects>
        <_>
          22 18 2 6 -1.</_>
        <_>
          22 20 2 2 2.</_></rects>
      <tilted>0</tilted></_>
    <_>
      <rects>
        <_>
          22 20 2 4 -1.</_>
        <_>
          22 20 1 2 2.</_>
        <_>
          23 22 1 2 2.</_></rects>
      <tilted>0</tilted></_>
    <_>
      <rects>
        <_>
          22 20 2 3 -1.</_>
        <_>
          23 20 1 3 2.</_></rects>
      <tilted>0</tilted></_>
    <_>
      <rects>
        <_>
          22 21 2 3 -1.</_>
        <_>
          23 21 1 3 2.</_></rects>
      <tilted>0</tilted></_>
    <_>
      <rects>
        <_>
          22 22 2 2 -1.</_>
        <_>
          22 23 2 1 2.</_></rects>
      <tilted>0</tilted></_>
    <_>
      <rects>
        <_>
          22 23 2 1 -1.</_>
        <_>
          23 23 1 1 2.</_></rects>
      <tilted>0</tilted></_>
    <_>
      <rects>
        <_>
          23 0 1 14 -1.</_>
        <_>
          23 7 1 7 2.</_></rects>
      <tilted>0</tilted></_>
    <_>
      <rects>
        <_>
          23 0 1 16 -1.</_>
        <_>
          23 8 1 8 2.</_></rects>
      <tilted>0</tilted></_>
    <_>
      <rects>
        <_>
          23 0 1 20 -1.</_>
        <_>
          23 10 1 10 2.</_></rects>
      <tilted>0</tilted></_>
    <_>
      <rects>
        <_>
          23 0 1 24 -1.</_>
        <_>
          23 12 1 12 2.</_></rects>
      <tilted>0</tilted></_>
    <_>
      <rects>
        <_>
          23 2 1 3 -1.</_>
        <_>
          23 3 1 1 2.</_></rects>
      <tilted>0</tilted></_>
    <_>
      <rects>
        <_>
          23 2 1 16 -1.</_>
        <_>
          23 10 1 8 2.</_></rects>
      <tilted>0</tilted></_>
    <_>
      <rects>
        <_>
          23 5 1 3 -1.</_>
        <_>
          23 6 1 1 2.</_></rects>
      <tilted>0</tilted></_>
    <_>
      <rects>
        <_>
          23 8 1 16 -1.</_>
        <_>
          23 16 1 8 2.</_></rects>
      <tilted>0</tilted></_>
    <_>
      <rects>
        <_>
          23 9 1 3 -1.</_>
        <_>
          23 10 1 1 2.</_></rects>
      <tilted>0</tilted></_>
    <_>
      <rects>
        <_>
          23 11 1 3 -1.</_>
        <_>
          23 12 1 1 2.</_></rects>
      <tilted>0</tilted></_>
    <_>
      <rects>
